{"learner":{"attributes":{"scikit_learn":"{\"_estimator_type\": \"regressor\"}"},"feature_names":["brand_0","brand_1","brand_2","brand_3","brand_4","dcity_0","dcity_1","dcity_2","dcity_3","dcity_4","acity_0","acity_1","acity_2","acity_3","acity_4","class_type","flytime_hours","Transit","dtime_category_0","dtime_category_1","dtime_category_2","atime_category_0","atime_category_1","atime_category_2","day_of_week","month","day_of_year"],"feature_types":["int","int","int","int","int","int","int","int","int","int","int","int","int","int","int","int","float","int","int","int","int","int","int","int","int","int","int"],"gradient_booster":{"model":{"gbtree_model_param":{"num_parallel_tree":"1","num_trees":"100"},"iteration_indptr":[0,1,2,3,4,5,6,7,8,9,10,11,12,13,14,15,16,17,18,19,20,21,22,23,24,25,26,27,28,29,30,31,32,33,34,35,36,37,38,39,40,41,42,43,44,45,46,47,48,49,50,51,52,53,54,55,56,57,58,59,60,61,62,63,64,65,66,67,68,69,70,71,72,73,74,75,76,77,78,79,80,81,82,83,84,85,86,87,88,89,90,91,92,93,94,95,96,97,98,99,100],"tree_info":[0,0,0,0,0,0,0,0,0,0,0,0,0,0,0,0,0,0,0,0,0,0,0,0,0,0,0,0,0,0,0,0,0,0,0,0,0,0,0,0,0,0,0,0,0,0,0,0,0,0,0,0,0,0,0,0,0,0,0,0,0,0,0,0,0,0,0,0,0,0,0,0,0,0,0,0,0,0,0,0,0,0,0,0,0,0,0,0,0,0,0,0,0,0,0,0,0,0,0,0],"trees":[{"base_weights":[4.0343054E-10,-9.720521E-2,2.7528077E-1,-1.0760903E-1,-7.140585E-2,3.864951E-2,3.6870974E-1,-1.2312809E-1,-1.0047072E-1,-7.995949E-2,-5.2257992E-2,7.440275E-3,8.3077684E-2,3.3994702E-1,3.8394287E-1,-1.2918688E-1,-1.08614616E-1,-1.06850155E-1,-8.659057E-2,-8.6259365E-2,-7.04063E-2,-6.988649E-2,-2.6082994E-2,-1.4673962E-2,8.074919E-2,5.323649E-2,1.1336792E-1,3.2075894E-1,3.5348642E-1,3.6405352E-1,4.0671223E-1,-1.3361296E-1,-1.1758187E-1,-1.3114908E-1,-1.03985116E-1,-1.0916255E-1,-6.845446E-2,-9.006799E-2,-7.76955E-2,-9.221581E-2,-7.94153E-2,-7.4116096E-2,-5.73436E-2,-7.8907765E-2,-2.9403638E-2,-8.4939515E-3,-5.2080013E-2,-6.0527917E-2,3.876644E-2,2.1305753E-1,4.963424E-2,-5.7156915E-3,8.52596E-2,2.0666145E-1,8.3122976E-2,2.3007242E-1,3.3406633E-1,1.3562822E-1,3.4986797E-1,3.3656543E-1,4.3015844E-1,3.832189E-1,4.2540494E-1,-4.0722407E-2,-3.1026939E-2,-3.7074998E-2,-3.129331E-2,-3.5378322E-2,-4.056661E-2,-2.6311245E-2,-3.3775482E-2,-3.3667926E-2,-2.2149654E-2,-2.693783E-2,-1.8749528E-2,-2.7496418E-2,-1.7195998E-2,-2.5301764E-2,-2.0872097E-2,-2.849024E-2,-2.3823613E-2,-2.4674438E-2,-1.6435603E-2,-2.3308583E-2,-1.8677792E-2,-9.532295E-3,-1.8911717E-2,-2.9613318E-2,-2.0075087E-2,-1.9966083E-2,7.26567E-4,2.001053E-3,-8.986987E-3,-2.7500058E-2,-9.3439305E-3,2.6722375E-2,-2.2684073E-2,-6.442197E-3,3.1069662E-2,2.850142E-2,6.809473E-2,-1.5681587E-2,2.3391483E-2,-6.7044417E-3,2.7422527E-2,6.1947603E-2,2.1729868E-2,1.1724173E-2,6.688742E-2,1.6537577E-2,4.161569E-2,6.4048074E-2,1.0255165E-1,1.0215257E-1,8.28714E-2,9.866686E-2,1.1093806E-1,8.673609E-2,1.07231736E-1,1.3419311E-1,1.2096805E-1,1.08545035E-1,1.2381049E-1,1.1955896E-1,1.3492964E-1],"categories":[],"categories_nodes":[],"categories_segments":[],"categories_sizes":[],"default_left":[0,0,0,0,0,0,0,0,0,0,0,0,0,0,0,0,0,0,0,0,0,0,0,0,0,0,0,0,0,0,0,0,0,0,0,0,0,0,0,0,0,0,0,0,0,0,0,0,0,0,0,0,0,0,0,0,0,0,0,0,0,0,0,0,0,0,0,0,0,0,0,0,0,0,0,0,0,0,0,0,0,0,0,0,0,0,0,0,0,0,0,0,0,0,0,0,0,0,0,0,0,0,0,0,0,0,0,0,0,0,0,0,0,0,0,0,0,0,0,0,0,0,0,0,0],"id":0,"left_children":[1,3,5,7,9,11,13,15,17,19,21,23,25,27,29,31,33,35,37,39,41,43,45,47,49,51,53,55,57,59,61,63,65,67,69,71,73,75,77,79,81,83,85,87,89,91,93,95,97,99,101,103,105,107,109,111,113,-1,115,117,119,121,123,-1,-1,-1,-1,-1,-1,-1,-1,-1,-1,-1,-1,-1,-1,-1,-1,-1,-1,-1,-1,-1,-1,-1,-1,-1,-1,-1,-1,-1,-1,-1,-1,-1,-1,-1,-1,-1,-1,-1,-1,-1,-1,-1,-1,-1,-1,-1,-1,-1,-1,-1,-1,-1,-1,-1,-1,-1,-1,-1,-1,-1,-1],"loss_changes":[9.6714056E2,7.16185E0,2.0851044E2,2.0960999E0,1.2535172E0,3.702909E0,2.8322144E0,5.1286316E-1,1.1455841E0,3.1326294E-1,1.0936027E0,2.546423E0,9.900589E-1,4.9713135E-1,1.8504639E0,2.0115662E-1,1.7111969E-1,7.854843E-1,1.2019539E-1,1.22844696E-1,9.819412E-2,5.15543E-1,4.371581E-1,2.9600441E0,1.4879282E0,1.0520099E0,1.5234466E0,1.1094284E0,3.299408E-1,4.152649E0,7.368164E-1,1.8187332E-1,8.061218E-2,1.0061264E-4,1.965065E-1,9.033661E-1,5.9204817E-2,1.4803314E-1,5.688715E-2,5.2386284E-2,9.9663734E-2,6.4888E-2,6.673384E-2,2.6860762E-1,3.075637E-1,1.8636449E-1,3.170209E-1,1.4736886E0,2.180391E0,9.186292E-2,8.588506E-1,3.2027888E-1,5.464027E-1,3.5450983E-1,6.367693E-1,1.6605139E-1,2.2446442E-1,0E0,4.3182373E-1,1.5555115E0,1.3882446E-1,4.2991638E-1,5.618744E-1,0E0,0E0,0E0,0E0,0E0,0E0,0E0,0E0,0E0,0E0,0E0,0E0,0E0,0E0,0E0,0E0,0E0,0E0,0E0,0E0,0E0,0E0,0E0,0E0,0E0,0E0,0E0,0E0,0E0,0E0,0E0,0E0,0E0,0E0,0E0,0E0,0E0,0E0,0E0,0E0,0E0,0E0,0E0,0E0,0E0,0E0,0E0,0E0,0E0,0E0,0E0,0E0,0E0,0E0,0E0,0E0,0E0,0E0,0E0,0E0,0E0,0E0],"parents":[2147483647,0,0,1,1,2,2,3,3,4,4,5,5,6,6,7,7,8,8,9,9,10,10,11,11,12,12,13,13,14,14,15,15,16,16,17,17,18,18,19,19,20,20,21,21,22,22,23,23,24,24,25,25,26,26,27,27,28,28,29,29,30,30,31,31,32,32,33,33,34,34,35,35,36,36,37,37,38,38,39,39,40,40,41,41,42,42,43,43,44,44,45,45,46,46,47,47,48,48,49,49,50,50,51,51,52,52,53,53,54,54,55,55,56,56,58,58,59,59,60,60,61,61,62,62],"right_children":[2,4,6,8,10,12,14,16,18,20,22,24,26,28,30,32,34,36,38,40,42,44,46,48,50,52,54,56,58,60,62,64,66,68,70,72,74,76,78,80,82,84,86,88,90,92,94,96,98,100,102,104,106,108,110,112,114,-1,116,118,120,122,124,-1,-1,-1,-1,-1,-1,-1,-1,-1,-1,-1,-1,-1,-1,-1,-1,-1,-1,-1,-1,-1,-1,-1,-1,-1,-1,-1,-1,-1,-1,-1,-1,-1,-1,-1,-1,-1,-1,-1,-1,-1,-1,-1,-1,-1,-1,-1,-1,-1,-1,-1,-1,-1,-1,-1,-1,-1,-1,-1,-1,-1,-1],"split_conditions":[2E0,1.2682927E-1,4.3902438E-2,2.2764228E-2,2.796748E-1,1E0,1.1707317E-1,1E0,4E0,1E0,1E0,1E0,1E0,1E0,1E0,1E0,4.878049E-3,1E0,1E0,3.55E2,2.3089431E-1,1E0,1E0,1E0,1E0,4.878049E-3,4.878049E-3,1E0,4.8780486E-2,1E0,1E0,1E0,4E0,1E0,1E0,1E0,1E0,1E0,1E0,1E0,1E0,1E0,1E0,1E0,1E0,1E0,1E0,4.878049E-3,1E0,3.2520324E-3,3.2520324E-3,1E0,6.504065E-3,1.6260162E-3,1E0,1E0,1.0243902E-1,1.3562822E-1,7.479675E-2,1E0,1E0,1E0,1E0,-4.0722407E-2,-3.1026939E-2,-3.7074998E-2,-3.129331E-2,-3.5378322E-2,-4.056661E-2,-2.6311245E-2,-3.3775482E-2,-3.3667926E-2,-2.2149654E-2,-2.693783E-2,-1.8749528E-2,-2.7496418E-2,-1.7195998E-2,-2.5301764E-2,-2.0872097E-2,-2.849024E-2,-2.3823613E-2,-2.4674438E-2,-1.6435603E-2,-2.3308583E-2,-1.8677792E-2,-9.532295E-3,-1.8911717E-2,-2.9613318E-2,-2.0075087E-2,-1.9966083E-2,7.26567E-4,2.001053E-3,-8.986987E-3,-2.7500058E-2,-9.3439305E-3,2.6722375E-2,-2.2684073E-2,-6.442197E-3,3.1069662E-2,2.850142E-2,6.809473E-2,-1.5681587E-2,2.3391483E-2,-6.7044417E-3,2.7422527E-2,6.1947603E-2,2.1729868E-2,1.1724173E-2,6.688742E-2,1.6537577E-2,4.161569E-2,6.4048074E-2,1.0255165E-1,1.0215257E-1,8.28714E-2,9.866686E-2,1.1093806E-1,8.673609E-2,1.07231736E-1,1.3419311E-1,1.2096805E-1,1.08545035E-1,1.2381049E-1,1.1955896E-1,1.3492964E-1],"split_indices":[15,16,16,16,16,23,16,11,24,4,4,11,8,13,6,6,16,10,2,26,16,5,17,22,9,16,16,22,16,5,11,5,24,21,8,5,22,5,3,2,2,10,14,19,20,7,10,16,14,16,16,20,16,16,12,10,16,0,16,7,9,20,14,0,0,0,0,0,0,0,0,0,0,0,0,0,0,0,0,0,0,0,0,0,0,0,0,0,0,0,0,0,0,0,0,0,0,0,0,0,0,0,0,0,0,0,0,0,0,0,0,0,0,0,0,0,0,0,0,0,0,0,0,0,0],"split_type":[0,0,0,0,0,0,0,0,0,0,0,0,0,0,0,0,0,0,0,0,0,0,0,0,0,0,0,0,0,0,0,0,0,0,0,0,0,0,0,0,0,0,0,0,0,0,0,0,0,0,0,0,0,0,0,0,0,0,0,0,0,0,0,0,0,0,0,0,0,0,0,0,0,0,0,0,0,0,0,0,0,0,0,0,0,0,0,0,0,0,0,0,0,0,0,0,0,0,0,0,0,0,0,0,0,0,0,0,0,0,0,0,0,0,0,0,0,0,0,0,0,0,0,0,0],"sum_hessian":[3.6141E4,2.671E4,9.431E3,1.9032E4,7.678E3,2.67E3,6.761E3,5.991E3,1.3041E4,5.305E3,2.373E3,1.569E3,1.101E3,2.349E3,4.412E3,4.221E3,1.77E3,8.93E3,4.111E3,3.192E3,2.113E3,1.417E3,9.56E2,1.206E3,3.63E2,5.56E2,5.45E2,9.82E2,1.367E3,2.364E3,2.048E3,3.048E3,1.173E3,2.97E2,1.473E3,8.421E3,5.09E2,2.949E3,1.162E3,1.7E3,1.492E3,1.642E3,4.71E2,1.158E3,2.59E2,5.71E2,3.85E2,6.49E2,5.57E2,6.8E1,2.95E2,1.96E2,3.6E2,1.32E2,4.13E2,1.28E2,8.54E2,4.4E1,1.323E3,1.674E3,6.9E2,9.17E2,1.131E3,2.844E3,2.04E2,8.02E2,3.71E2,7.7E1,2.2E2,5.13E2,9.6E2,7.747E3,6.74E2,1.08E2,4.01E2,2.811E3,1.38E2,6.34E2,5.28E2,1.394E3,3.06E2,1.336E3,1.56E2,1.257E3,3.85E2,8.7E1,3.84E2,4.34E2,7.24E2,1.19E2,1.4E2,3.35E2,2.36E2,1.32E2,2.53E2,5.9E1,5.9E2,2.89E2,2.68E2,8E0,6E1,6.4E1,2.31E2,1.68E2,2.8E1,3.3E1,3.27E2,1.2E1,1.2E2,2.76E2,1.37E2,1.14E2,1.4E1,7.64E2,9E1,6.53E2,6.7E2,5.16E2,1.158E3,4.12E2,2.78E2,5.39E2,3.78E2,5.46E2,5.85E2],"tree_param":{"num_deleted":"0","num_feature":"27","num_nodes":"125","size_leaf_vector":"1"}},{"base_weights":[3.4912355E-5,-6.807154E-2,1.9290932E-1,-7.535094E-2,-5.0020117E-2,2.7194727E-2,2.583383E-1,-8.60817E-2,-7.0245035E-2,-5.201563E-2,6.6696517E-3,5.292887E-3,5.8373217E-2,2.5553834E-1,1.0386217E-1,-9.011174E-2,-7.610704E-2,-7.479477E-2,-6.0413696E-2,-5.558487E-2,-3.0219438E-2,-1.5985215E-2,2.4228029E-2,-1.7281483E-3,1.47255E-1,3.2894403E-2,8.788412E-2,2.4003185E-1,2.6800647E-1,-9.6478075E-2,-8.509937E-2,-8.166911E-2,-6.5387E-2,-7.6687686E-2,-5.1401637E-2,-5.2293736E-2,-6.405589E-2,-5.1437177E-2,-7.016097E-2,-4.460883E-2,-3.8090616E-3,-4.2960636E-2,1.7522711E-2,1.9915653E-2,4.4648293E-2,-2.0516964E-2,5.6810986E-2,4.4848345E-2,2.2858602E-1,1.288734E-4,8.46064E-2,6.545817E-2,1.4442885E-1,1.9456714E-1,2.4929905E-1,2.5063935E-1,2.8161344E-1,-3.077255E-2,-2.6878702E-2,-3.109319E-2,-2.5111673E-2,-2.828781E-2,-2.3601174E-2,-1.6998498E-2,-2.2078048E-2,-2.3577273E-2,-1.4402309E-2,-1.862506E-2,-1.0086199E-2,-1.6087385E-2,-5.4026805E-3,-1.7032554E-2,-2.0749027E-2,-1.6860511E-2,-1.3463364E-2,-2.2469606E-2,-1.6199948E-2,-1.5751276E-2,-1.0262085E-2,1.7546451E-3,-9.202286E-3,-1.5998248E-2,-3.3487265E-3,9.4930725E-3,-3.2724005E-3,4.9842163E-3,1.3401023E-2,1.5118487E-2,7.84118E-3,-1.2552685E-2,2.3701612E-3,4.5162063E-2,1.0431005E-2,-3.154014E-3,2.6732491E-2,7.534149E-2,-4.2236723E-2,-8.184164E-3,2.3079302E-2,6.5912693E-3,4.6180796E-2,1.2694313E-2,4.0253416E-2,5.620734E-2,4.5657717E-3,6.164595E-2,5.3131826E-2,6.555222E-2,7.8462906E-2,7.616308E-2,3.6354885E-2,7.625325E-2,9.168682E-2],"categories":[],"categories_nodes":[],"categories_segments":[],"categories_sizes":[],"default_left":[0,0,0,0,0,0,0,0,0,0,0,0,0,0,0,0,0,0,0,0,0,0,0,0,0,0,0,0,0,0,0,0,0,0,0,0,0,0,0,0,0,0,0,0,0,0,0,0,0,0,0,0,0,0,0,0,0,0,0,0,0,0,0,0,0,0,0,0,0,0,0,0,0,0,0,0,0,0,0,0,0,0,0,0,0,0,0,0,0,0,0,0,0,0,0,0,0,0,0,0,0,0,0,0,0,0,0,0,0,0,0,0,0],"id":1,"left_children":[1,3,5,7,9,11,13,15,17,19,21,23,25,27,-1,29,31,33,35,37,39,41,43,45,47,49,51,53,55,57,59,61,63,65,67,69,71,73,75,77,79,81,83,85,87,89,91,93,95,97,99,101,103,105,107,109,111,-1,-1,-1,-1,-1,-1,-1,-1,-1,-1,-1,-1,-1,-1,-1,-1,-1,-1,-1,-1,-1,-1,-1,-1,-1,-1,-1,-1,-1,-1,-1,-1,-1,-1,-1,-1,-1,-1,-1,-1,-1,-1,-1,-1,-1,-1,-1,-1,-1,-1,-1,-1,-1,-1,-1,-1],"loss_changes":[4.7477414E2,3.5061493E0,1.02259766E2,1.0367737E0,8.690338E-1,1.8236269E0,1.5751953E0,2.3963547E-1,5.7258606E-1,5.7541084E-1,1.0460635E-1,1.5651065E0,8.25706E-1,1.2033691E0,0E0,1.3098526E-1,1.0025787E-1,3.864441E-1,1.1752033E-1,3.8168526E-1,3.9734083E-1,1.0470019E-1,1.2143664E-2,1.6476873E0,6.060823E-1,1.0047512E0,6.372616E-1,1.1868439E0,7.862854E-1,7.112503E-2,5.462265E-2,3.6566257E-2,3.9509058E-2,4.4130325E-1,1.2383938E-1,5.7028294E-2,1.0082817E-1,1.5264511E-1,1.03838444E-1,5.380416E-2,9.618E-2,2.0502172E-2,2.1221407E-2,9.392265E-3,1.3422295E-3,6.875485E-1,7.4674726E-1,8.424729E-2,3.7689805E-1,7.6835585E-1,9.9539113E-1,5.7801306E-1,7.958925E-1,5.9127808E-2,8.597412E-1,6.406708E-1,1.2562256E0,0E0,0E0,0E0,0E0,0E0,0E0,0E0,0E0,0E0,0E0,0E0,0E0,0E0,0E0,0E0,0E0,0E0,0E0,0E0,0E0,0E0,0E0,0E0,0E0,0E0,0E0,0E0,0E0,0E0,0E0,0E0,0E0,0E0,0E0,0E0,0E0,0E0,0E0,0E0,0E0,0E0,0E0,0E0,0E0,0E0,0E0,0E0,0E0,0E0,0E0,0E0,0E0,0E0,0E0,0E0,0E0],"parents":[2147483647,0,0,1,1,2,2,3,3,4,4,5,5,6,6,7,7,8,8,9,9,10,10,11,11,12,12,13,13,15,15,16,16,17,17,18,18,19,19,20,20,21,21,22,22,23,23,24,24,25,25,26,26,27,27,28,28,29,29,30,30,31,31,32,32,33,33,34,34,35,35,36,36,37,37,38,38,39,39,40,40,41,41,42,42,43,43,44,44,45,45,46,46,47,47,48,48,49,49,50,50,51,51,52,52,53,53,54,54,55,55,56,56],"right_children":[2,4,6,8,10,12,14,16,18,20,22,24,26,28,-1,30,32,34,36,38,40,42,44,46,48,50,52,54,56,58,60,62,64,66,68,70,72,74,76,78,80,82,84,86,88,90,92,94,96,98,100,102,104,106,108,110,112,-1,-1,-1,-1,-1,-1,-1,-1,-1,-1,-1,-1,-1,-1,-1,-1,-1,-1,-1,-1,-1,-1,-1,-1,-1,-1,-1,-1,-1,-1,-1,-1,-1,-1,-1,-1,-1,-1,-1,-1,-1,-1,-1,-1,-1,-1,-1,-1,-1,-1,-1,-1,-1,-1,-1,-1],"split_conditions":[2E0,1.2682927E-1,4.3902438E-2,2.4390243E-2,4.9268293E-1,1E0,5.121951E-1,1E0,4E0,1E0,1E0,1E0,1E0,1E0,1.0386217E-1,3.53E2,4E0,1E0,1E0,1E0,1E0,1E0,5E0,1E0,1E0,1E0,1E0,7.479675E-2,1E0,9.756098E-3,1.6260162E-3,4.878049E-3,1E0,1E0,1E0,1E0,1E0,1E0,4E0,1E0,1E0,1E0,6.1463416E-1,1E0,1E0,1E0,1E0,3.48E2,1E0,1E0,1E0,1E0,1E0,1E0,1E0,4.7317073E-1,1E0,-3.077255E-2,-2.6878702E-2,-3.109319E-2,-2.5111673E-2,-2.828781E-2,-2.3601174E-2,-1.6998498E-2,-2.2078048E-2,-2.3577273E-2,-1.4402309E-2,-1.862506E-2,-1.0086199E-2,-1.6087385E-2,-5.4026805E-3,-1.7032554E-2,-2.0749027E-2,-1.6860511E-2,-1.3463364E-2,-2.2469606E-2,-1.6199948E-2,-1.5751276E-2,-1.0262085E-2,1.7546451E-3,-9.202286E-3,-1.5998248E-2,-3.3487265E-3,9.4930725E-3,-3.2724005E-3,4.9842163E-3,1.3401023E-2,1.5118487E-2,7.84118E-3,-1.2552685E-2,2.3701612E-3,4.5162063E-2,1.0431005E-2,-3.154014E-3,2.6732491E-2,7.534149E-2,-4.2236723E-2,-8.184164E-3,2.3079302E-2,6.5912693E-3,4.6180796E-2,1.2694313E-2,4.0253416E-2,5.620734E-2,4.5657717E-3,6.164595E-2,5.3131826E-2,6.555222E-2,7.8462906E-2,7.616308E-2,3.6354885E-2,7.625325E-2,9.168682E-2],"split_indices":[15,16,16,16,16,23,16,11,24,5,4,5,14,11,0,26,24,5,18,18,9,9,24,11,13,11,6,16,13,16,16,16,18,10,9,10,13,4,24,4,22,7,16,12,18,22,9,26,8,12,13,7,7,8,12,16,14,0,0,0,0,0,0,0,0,0,0,0,0,0,0,0,0,0,0,0,0,0,0,0,0,0,0,0,0,0,0,0,0,0,0,0,0,0,0,0,0,0,0,0,0,0,0,0,0,0,0,0,0,0,0,0,0],"split_type":[0,0,0,0,0,0,0,0,0,0,0,0,0,0,0,0,0,0,0,0,0,0,0,0,0,0,0,0,0,0,0,0,0,0,0,0,0,0,0,0,0,0,0,0,0,0,0,0,0,0,0,0,0,0,0,0,0,0,0,0,0,0,0,0,0,0,0,0,0,0,0,0,0,0,0,0,0,0,0,0,0,0,0,0,0,0,0,0,0,0,0,0,0,0,0,0,0,0,0,0,0,0,0,0,0,0,0,0,0,0,0,0,0],"sum_hessian":[3.6141E4,2.671E4,9.431E3,1.9032E4,7.678E3,2.67E3,6.761E3,6.131E3,1.2901E4,7.417E3,2.61E2,1.569E3,1.101E3,6.556E3,2.05E2,4.361E3,1.77E3,8.815E3,4.086E3,6.372E3,1.045E3,1.14E2,1.47E2,1.496E3,7.3E1,5.92E2,5.09E2,2.931E3,3.625E3,1.913E3,2.448E3,1.161E3,6.09E2,8.153E3,6.62E2,1.27E3,2.816E3,4.964E3,1.408E3,6.76E2,3.69E2,6.3E1,5.1E1,1.23E2,2.4E1,1.133E3,3.63E2,3.3E1,4E1,3.63E2,2.29E2,3.66E2,1.43E2,5E2,2.431E3,1.601E3,2.024E3,1.007E3,9.06E2,1.66E2,2.282E3,2.17E2,9.44E2,2.99E2,3.1E2,7.644E3,5.09E2,4.12E2,2.5E2,1.222E3,4.8E1,1.166E3,1.65E3,2.871E3,2.093E3,1.086E3,3.22E2,3.82E2,2.94E2,2.72E2,9.7E1,4.7E1,1.6E1,3.4E1,1.7E1,1.1E2,1.3E1,1.7E1,7E0,6.47E2,4.86E2,6.8E1,2.95E2,1.5E1,1.8E1,3.8E1,2E0,2.68E2,9.5E1,1.21E2,1.08E2,2.75E2,9.1E1,1.07E2,3.6E1,3.01E2,1.99E2,6.97E2,1.734E3,1.561E3,4E1,9.5E2,1.074E3],"tree_param":{"num_deleted":"0","num_feature":"27","num_nodes":"113","size_leaf_vector":"1"}},{"base_weights":[3.8871178E-5,-4.766524E-2,1.3513476E-1,-5.366463E-2,-3.6600187E-2,1.914244E-2,1.8093191E-1,-5.7379723E-2,-4.58826E-2,-3.768766E-2,9.781838E-3,2.8658679E-2,-1.971876E-2,1.7042622E-1,1.9859359E-1,-6.387069E-2,-5.3907987E-2,-5.3387143E-2,-4.1894425E-2,-4.3748345E-2,-3.1180676E-2,-6.6156713E-3,1.9097935E-2,2.4696885E-2,1.4580137E-1,-3.0803563E-2,2.666124E-2,1.6696621E-1,2.1588098E-1,1.8530025E-1,2.1394862E-1,-8.9145474E-2,-6.28895E-2,-5.772331E-2,-4.739424E-2,-4.5224518E-2,-5.9750985E-2,-4.2788856E-2,-2.2306157E-2,-4.6251312E-2,-2.3075886E-2,-3.625822E-2,-1.9086136E-2,-1.6182808E-2,1.8907493E-2,4.0981013E-2,1.6688587E-2,1.1566258E-2,5.5820715E-2,1.8954863E-1,3.4698278E-2,-3.893099E-2,2.956091E-2,-4.2159148E-2,6.6484526E-2,1.8052699E-1,1.5771869E-1,2.5734317E-1,1.7004028E-1,1.638206E-1,2.1657576E-1,1.9929744E-1,2.3657177E-1,3.5594928E-4,-2.8681872E-2,-1.9574927E-2,-1.7163908E-2,-1.7799295E-2,-9.7594485E-3,-1.5336123E-2,-1.2621064E-2,-1.9009944E-2,-1.2554922E-2,-1.9524068E-2,-1.4735541E-2,-1.2078556E-2,-1.5257896E-2,-4.3267445E-3,-1.1341928E-2,-1.5673958E-2,-1.2976293E-2,-9.827065E-3,-2.3738914E-3,-1.0525924E-2,-2.0770598E-2,-9.242359E-3,-1.4596754E-3,-9.063728E-3,-2.5719567E-3,8.232419E-3,-2.5269464E-3,1.32422885E-2,4.7202604E-3,-9.893727E-3,5.7040574E-3,-5.6022713E-3,1.1409374E-2,4.1893966E-2,1.0514353E-2,2.2429652E-3,6.721531E-2,1.6840383E-2,-3.378938E-2,3.6471795E-2,-1.2296753E-2,4.0746618E-2,-9.169371E-4,4.931205E-3,-2.5656583E-2,6.6941814E-3,4.230386E-2,4.831413E-2,5.9159525E-2,4.0506024E-2,5.147156E-2,8.021212E-2,4.397054E-2,4.1051846E-2,5.938373E-2,3.7189E-2,5.3839885E-2,6.857386E-2,5.1090155E-2,5.091055E-2,6.387501E-2,8.02811E-2,5.2496064E-2],"categories":[],"categories_nodes":[],"categories_segments":[],"categories_sizes":[],"default_left":[0,0,0,0,0,0,0,0,0,0,0,0,0,0,0,0,0,0,0,0,0,0,0,0,0,0,0,0,0,0,0,0,0,0,0,0,0,0,0,0,0,0,0,0,0,0,0,0,0,0,0,0,0,0,0,0,0,0,0,0,0,0,0,0,0,0,0,0,0,0,0,0,0,0,0,0,0,0,0,0,0,0,0,0,0,0,0,0,0,0,0,0,0,0,0,0,0,0,0,0,0,0,0,0,0,0,0,0,0,0,0,0,0,0,0,0,0,0,0,0,0,0,0,0,0,0,0],"id":2,"left_children":[1,3,5,7,9,11,13,15,17,19,21,23,25,27,29,31,33,35,37,39,41,43,45,47,49,51,53,55,57,59,61,63,65,67,69,71,73,75,77,79,81,83,85,87,89,91,93,95,97,99,101,103,105,107,109,111,113,115,117,119,121,123,125,-1,-1,-1,-1,-1,-1,-1,-1,-1,-1,-1,-1,-1,-1,-1,-1,-1,-1,-1,-1,-1,-1,-1,-1,-1,-1,-1,-1,-1,-1,-1,-1,-1,-1,-1,-1,-1,-1,-1,-1,-1,-1,-1,-1,-1,-1,-1,-1,-1,-1,-1,-1,-1,-1,-1,-1,-1,-1,-1,-1,-1,-1,-1,-1],"loss_changes":[2.3292822E2,1.7712059E0,5.010045E1,4.9804688E-1,4.7419548E-1,9.8833406E-1,1.2208252E0,2.6062012E-1,1.6539669E-1,3.6062527E-1,3.312268E-2,9.923476E-1,2.7124476E-1,6.31897E-1,4.7392273E-1,9.552574E-2,1.8716049E-1,9.807253E-2,6.320524E-2,2.4470997E-1,2.7135658E-1,1.959648E-2,6.5919906E-3,8.481729E-1,3.3365488E-1,2.0965913E-1,2.8234968E-1,4.6700287E-1,5.2073574E-1,8.754616E-1,3.3766937E-1,8.7655544E-2,4.890728E-2,1.9303703E-1,5.395174E-2,4.963422E-2,5.839634E-2,6.9354534E-2,1.9250996E-2,7.385063E-2,7.533878E-2,1.1809826E-1,2.185466E-1,5.933066E-3,5.3623607E-3,3.4259818E-4,1.5176803E-2,1.1707698E0,1.0677485E0,3.1242085E-1,7.2644815E-2,1.288631E-1,1.7717904E-1,9.796024E-2,2.1083084E-1,4.8622894E-1,7.1798706E-1,1.3192654E-1,1.0632706E-1,4.8161697E-1,2.6602936E-1,2.5045204E-1,8.150749E-1,0E0,0E0,0E0,0E0,0E0,0E0,0E0,0E0,0E0,0E0,0E0,0E0,0E0,0E0,0E0,0E0,0E0,0E0,0E0,0E0,0E0,0E0,0E0,0E0,0E0,0E0,0E0,0E0,0E0,0E0,0E0,0E0,0E0,0E0,0E0,0E0,0E0,0E0,0E0,0E0,0E0,0E0,0E0,0E0,0E0,0E0,0E0,0E0,0E0,0E0,0E0,0E0,0E0,0E0,0E0,0E0,0E0,0E0,0E0,0E0,0E0,0E0,0E0,0E0],"parents":[2147483647,0,0,1,1,2,2,3,3,4,4,5,5,6,6,7,7,8,8,9,9,10,10,11,11,12,12,13,13,14,14,15,15,16,16,17,17,18,18,19,19,20,20,21,21,22,22,23,23,24,24,25,25,26,26,27,27,28,28,29,29,30,30,31,31,32,32,33,33,34,34,35,35,36,36,37,37,38,38,39,39,40,40,41,41,42,42,43,43,44,44,45,45,46,46,47,47,48,48,49,49,50,50,51,51,52,52,53,53,54,54,55,55,56,56,57,57,58,58,59,59,60,60,61,61,62,62],"right_children":[2,4,6,8,10,12,14,16,18,20,22,24,26,28,30,32,34,36,38,40,42,44,46,48,50,52,54,56,58,60,62,64,66,68,70,72,74,76,78,80,82,84,86,88,90,92,94,96,98,100,102,104,106,108,110,112,114,116,118,120,122,124,126,-1,-1,-1,-1,-1,-1,-1,-1,-1,-1,-1,-1,-1,-1,-1,-1,-1,-1,-1,-1,-1,-1,-1,-1,-1,-1,-1,-1,-1,-1,-1,-1,-1,-1,-1,-1,-1,-1,-1,-1,-1,-1,-1,-1,-1,-1,-1,-1,-1,-1,-1,-1,-1,-1,-1,-1,-1,-1,-1,-1,-1,-1,-1,-1],"split_conditions":[2E0,1.07317075E-1,4.3902438E-2,4E0,5.121951E-1,2.2764228E-2,2.5691056E-1,2.2764228E-2,2.4390243E-2,1E0,1E0,1E0,1E0,1E0,1E0,1E0,3.53E2,1E0,3.58E2,1E0,3.0243903E-1,1E0,1E0,1E0,1E0,1E0,3.48E2,1E0,1E0,1E0,1E0,1E0,1E0,1E0,1E0,3.2520324E-3,1E0,3.57E2,8.7804876E-2,1E0,1E0,1E0,1E0,4E0,5E0,1E0,6.1463416E-1,1E0,1E0,2E0,1E0,1E0,1E0,1E0,1E0,1E0,3.48E2,2.3739837E-1,1E0,1E0,1E0,1E0,1E0,3.5594928E-4,-2.8681872E-2,-1.9574927E-2,-1.7163908E-2,-1.7799295E-2,-9.7594485E-3,-1.5336123E-2,-1.2621064E-2,-1.9009944E-2,-1.2554922E-2,-1.9524068E-2,-1.4735541E-2,-1.2078556E-2,-1.5257896E-2,-4.3267445E-3,-1.1341928E-2,-1.5673958E-2,-1.2976293E-2,-9.827065E-3,-2.3738914E-3,-1.0525924E-2,-2.0770598E-2,-9.242359E-3,-1.4596754E-3,-9.063728E-3,-2.5719567E-3,8.232419E-3,-2.5269464E-3,1.32422885E-2,4.7202604E-3,-9.893727E-3,5.7040574E-3,-5.6022713E-3,1.1409374E-2,4.1893966E-2,1.0514353E-2,2.2429652E-3,6.721531E-2,1.6840383E-2,-3.378938E-2,3.6471795E-2,-1.2296753E-2,4.0746618E-2,-9.169371E-4,4.931205E-3,-2.5656583E-2,6.6941814E-3,4.230386E-2,4.831413E-2,5.9159525E-2,4.0506024E-2,5.147156E-2,8.021212E-2,4.397054E-2,4.1051846E-2,5.938373E-2,3.7189E-2,5.3839885E-2,6.857386E-2,5.1090155E-2,5.091055E-2,6.387501E-2,8.02811E-2,5.2496064E-2],"split_indices":[15,16,16,24,16,16,16,16,16,19,4,5,12,5,6,3,26,8,26,10,16,23,10,11,20,7,26,21,20,5,20,4,11,10,9,16,11,26,16,11,9,1,20,24,24,2,16,14,9,24,8,4,8,14,23,11,26,16,12,7,22,11,18,0,0,0,0,0,0,0,0,0,0,0,0,0,0,0,0,0,0,0,0,0,0,0,0,0,0,0,0,0,0,0,0,0,0,0,0,0,0,0,0,0,0,0,0,0,0,0,0,0,0,0,0,0,0,0,0,0,0,0,0,0,0,0,0],"split_type":[0,0,0,0,0,0,0,0,0,0,0,0,0,0,0,0,0,0,0,0,0,0,0,0,0,0,0,0,0,0,0,0,0,0,0,0,0,0,0,0,0,0,0,0,0,0,0,0,0,0,0,0,0,0,0,0,0,0,0,0,0,0,0,0,0,0,0,0,0,0,0,0,0,0,0,0,0,0,0,0,0,0,0,0,0,0,0,0,0,0,0,0,0,0,0,0,0,0,0,0,0,0,0,0,0,0,0,0,0,0,0,0,0,0,0,0,0,0,0,0,0,0,0,0,0,0,0],"sum_hessian":[3.6141E4,2.671E4,9.431E3,1.7317E4,9.393E3,2.67E3,6.761E3,1.1717E4,5.6E3,9.178E3,2.15E2,2.145E3,5.25E2,4.246E3,2.515E3,4.077E3,7.64E3,1.939E3,3.661E3,4.749E3,4.429E3,7.8E1,1.37E2,2.076E3,6.9E1,4.24E2,1.01E2,3.95E3,2.96E2,1.355E3,1.16E3,1.49E2,3.928E3,4.813E3,2.827E3,8.53E2,1.086E3,3.5E3,1.61E2,4.235E3,5.14E2,3.118E3,1.311E3,5.7E1,2.1E1,1.2E1,1.25E2,1.461E3,6.15E2,4.9E1,2E1,3.74E2,5E1,3.7E1,6.4E1,1.594E3,2.356E3,1.53E2,1.43E2,8.07E2,5.48E2,7.1E2,4.5E2,1E1,1.39E2,2.767E3,1.161E3,4.523E3,2.9E2,1.658E3,1.169E3,1.31E2,7.22E2,7.2E2,3.66E2,2.67E3,8.3E2,1.08E2,5.3E1,1.406E3,2.829E3,3.13E2,2.01E2,3.013E3,1.05E2,7.18E2,5.93E2,1.9E1,3.8E1,1.6E1,5E0,1E1,2E0,5E0,1.2E2,6.82E2,7.79E2,1.21E2,4.94E2,8E0,4.1E1,1.8E1,2E0,4E0,3.7E2,1.1E1,3.9E1,1.6E1,2.1E1,4.1E1,2.3E1,7.4E2,8.54E2,8.97E2,1.459E3,1.39E2,1.4E1,6.8E1,7.5E1,2.3E2,5.77E2,4.32E2,1.16E2,2.28E2,4.82E2,2.97E2,1.53E2],"tree_param":{"num_deleted":"0","num_feature":"27","num_nodes":"127","size_leaf_vector":"1"}},{"base_weights":[4.8816004E-5,-3.3377063E-2,9.4709404E-2,-3.7578486E-2,-2.5628116E-2,1.3475711E-2,1.2678282E-1,-4.0176097E-2,-3.2137252E-2,-2.7779436E-2,-1.2506018E-2,-5.5913665E-6,3.267006E-2,1.24841E-1,1.879758E-1,-4.1148175E-2,-2.3088194E-2,-3.525261E-2,-2.6866822E-2,-2.8564781E-2,9.7865015E-3,-2.0158479E-2,2.0157911E-4,-3.7460062E-3,7.566206E-2,1.2641969E-2,5.304181E-2,1.2100656E-1,1.5170766E-1,1.9531833E-1,1.4356434E-1,-4.4012155E-2,-3.6671106E-2,-3.2430474E-2,-3.7053872E-3,-3.5989244E-2,-7.744782E-3,-2.9602444E-2,-6.85096E-3,-2.5295598E-2,-3.5063893E-2,-4.7400114E-3,1.3025732E-2,-1.1659875E-2,-2.7790187E-2,-1.8033642E-2,8.547725E-3,-1.3103913E-2,2.5417762E-2,1.9386021E-2,1.135915E-1,-3.167062E-3,4.5500327E-2,1.0674576E-1,3.5660967E-2,1.0807512E-1,1.3451262E-1,2.613976E-1,1.4861935E-1,1.761241E-1,2.2798759E-1,1.7087443E-1,8.153216E-2,-1.3480666E-2,-7.1338075E-3,-1.2276579E-2,-9.918091E-3,-7.6101557E-3,-1.1725739E-2,-6.9444566E-3,1.3729574E-3,-1.1110466E-2,-6.0849744E-3,5.8945804E-3,-6.5275165E-3,-1.0075952E-2,-6.279215E-3,-2.9398373E-3,1.9644786E-2,-9.013619E-3,-5.9823426E-3,-1.0715472E-2,1.0466301E-2,5.638605E-3,-2.379876E-3,1.323141E-3,5.8126226E-3,-3.0251706E-3,-1.2164273E-2,1.860965E-2,-8.5045E-3,1.9033157E-3,-7.5238026E-3,1.983778E-3,1.2936074E-2,-8.6119175E-3,2.3050746E-3,-1.5632773E-2,1.341374E-2,1.2313626E-2,-7.1178293E-3,4.085004E-2,-7.55624E-3,-6.7628846E-3,1.3220531E-2,1.8569581E-2,-2.9272305E-2,2.4643699E-2,4.742704E-2,-4.8368066E-3,1.5028524E-2,2.0319395E-2,3.6008194E-2,3.253809E-2,4.3284528E-2,4.0412806E-2,9.092769E-2,5.0640192E-2,4.02473E-2,4.5738414E-2,5.805336E-2,8.711988E-2,6.039685E-2,6.298746E-2,3.6242433E-2,2.817164E-2,3.933132E-3],"categories":[],"categories_nodes":[],"categories_segments":[],"categories_sizes":[],"default_left":[0,0,0,0,0,0,0,0,0,0,0,0,0,0,0,0,0,0,0,0,0,0,0,0,0,0,0,0,0,0,0,0,0,0,0,0,0,0,0,0,0,0,0,0,0,0,0,0,0,0,0,0,0,0,0,0,0,0,0,0,0,0,0,0,0,0,0,0,0,0,0,0,0,0,0,0,0,0,0,0,0,0,0,0,0,0,0,0,0,0,0,0,0,0,0,0,0,0,0,0,0,0,0,0,0,0,0,0,0,0,0,0,0,0,0,0,0,0,0,0,0,0,0,0,0,0,0],"id":3,"left_children":[1,3,5,7,9,11,13,15,17,19,21,23,25,27,29,31,33,35,37,39,41,43,45,47,49,51,53,55,57,59,61,63,65,67,69,71,73,75,77,79,81,83,85,87,89,91,93,95,97,99,101,103,105,107,109,111,113,115,117,119,121,123,125,-1,-1,-1,-1,-1,-1,-1,-1,-1,-1,-1,-1,-1,-1,-1,-1,-1,-1,-1,-1,-1,-1,-1,-1,-1,-1,-1,-1,-1,-1,-1,-1,-1,-1,-1,-1,-1,-1,-1,-1,-1,-1,-1,-1,-1,-1,-1,-1,-1,-1,-1,-1,-1,-1,-1,-1,-1,-1,-1,-1,-1,-1,-1,-1],"loss_changes":[1.1436055E2,8.6865616E-1,2.4572823E1,2.434845E-1,2.6484346E-1,6.911609E-1,7.800369E-1,1.9369507E-1,9.101677E-2,2.3836327E-1,1.2885289E-1,4.44638E-1,4.489534E-1,6.57135E-1,3.9134026E-2,1.4053345E-1,1.14503205E-1,7.0987225E-2,1.1396313E-1,1.6706896E-1,7.8728255E-3,5.331421E-2,7.609887E-2,4.0888205E-1,1.5575227E-1,2.8948268E-1,5.058404E-1,9.884949E-1,2.3723602E-1,6.8954945E-2,4.197365E-2,1.2515354E-1,6.512308E-2,1.9081116E-2,3.3437815E-2,5.5497646E-2,3.612836E-2,6.265938E-2,5.4387074E-2,1.3325262E-1,1.22222185E-1,2.4786359E-3,7.354306E-3,1.7482933E-2,2.3566782E-2,2.7125467E-2,2.2662386E-2,3.680181E-1,5.468232E-1,2.99211E-2,1.4128065E-1,3.46035E-1,4.3069783E-1,1.5500283E-1,3.1025243E-1,1.4090462E0,6.982498E-1,7.009733E-2,2.093792E-1,1.7399311E-2,4.3052435E-2,1.768446E-2,8.928083E-3,0E0,0E0,0E0,0E0,0E0,0E0,0E0,0E0,0E0,0E0,0E0,0E0,0E0,0E0,0E0,0E0,0E0,0E0,0E0,0E0,0E0,0E0,0E0,0E0,0E0,0E0,0E0,0E0,0E0,0E0,0E0,0E0,0E0,0E0,0E0,0E0,0E0,0E0,0E0,0E0,0E0,0E0,0E0,0E0,0E0,0E0,0E0,0E0,0E0,0E0,0E0,0E0,0E0,0E0,0E0,0E0,0E0,0E0,0E0,0E0,0E0,0E0,0E0,0E0],"parents":[2147483647,0,0,1,1,2,2,3,3,4,4,5,5,6,6,7,7,8,8,9,9,10,10,11,11,12,12,13,13,14,14,15,15,16,16,17,17,18,18,19,19,20,20,21,21,22,22,23,23,24,24,25,25,26,26,27,27,28,28,29,29,30,30,31,31,32,32,33,33,34,34,35,35,36,36,37,37,38,38,39,39,40,40,41,41,42,42,43,43,44,44,45,45,46,46,47,47,48,48,49,49,50,50,51,51,52,52,53,53,54,54,55,55,56,56,57,57,58,58,59,59,60,60,61,61,62,62],"right_children":[2,4,6,8,10,12,14,16,18,20,22,24,26,28,30,32,34,36,38,40,42,44,46,48,50,52,54,56,58,60,62,64,66,68,70,72,74,76,78,80,82,84,86,88,90,92,94,96,98,100,102,104,106,108,110,112,114,116,118,120,122,124,126,-1,-1,-1,-1,-1,-1,-1,-1,-1,-1,-1,-1,-1,-1,-1,-1,-1,-1,-1,-1,-1,-1,-1,-1,-1,-1,-1,-1,-1,-1,-1,-1,-1,-1,-1,-1,-1,-1,-1,-1,-1,-1,-1,-1,-1,-1,-1,-1,-1,-1,-1,-1,-1,-1,-1,-1,-1,-1,-1,-1,-1,-1,-1,-1],"split_conditions":[2E0,1.07317075E-1,4.3902438E-2,4E0,1E0,1E0,5.121951E-1,1E0,1E0,5.121951E-1,2.796748E-1,1E0,1E0,1E0,3.57E2,3.53E2,1E0,1E0,6E0,1E0,1E0,1E0,1E0,1E0,3.54E2,1E0,4.878049E-3,1E0,3.45E2,1E0,1E0,1E0,5.5284552E-2,1E0,1E0,1E0,1E0,1E0,1.0406504E-1,1E0,3.58E2,1E0,2E0,2.699187E-1,1.0894309E-1,3.398374E-1,1E0,1E0,3.2520324E-3,1E0,2.1138212E-2,1.4634146E-2,2.1138212E-2,1E0,1E0,1E0,1.07317075E-1,1E0,1E0,1E0,1E0,1E0,1E0,-1.3480666E-2,-7.1338075E-3,-1.2276579E-2,-9.918091E-3,-7.6101557E-3,-1.1725739E-2,-6.9444566E-3,1.3729574E-3,-1.1110466E-2,-6.0849744E-3,5.8945804E-3,-6.5275165E-3,-1.0075952E-2,-6.279215E-3,-2.9398373E-3,1.9644786E-2,-9.013619E-3,-5.9823426E-3,-1.0715472E-2,1.0466301E-2,5.638605E-3,-2.379876E-3,1.323141E-3,5.8126226E-3,-3.0251706E-3,-1.2164273E-2,1.860965E-2,-8.5045E-3,1.9033157E-3,-7.5238026E-3,1.983778E-3,1.2936074E-2,-8.6119175E-3,2.3050746E-3,-1.5632773E-2,1.341374E-2,1.2313626E-2,-7.1178293E-3,4.085004E-2,-7.55624E-3,-6.7628846E-3,1.3220531E-2,1.8569581E-2,-2.9272305E-2,2.4643699E-2,4.742704E-2,-4.8368066E-3,1.5028524E-2,2.0319395E-2,3.6008194E-2,3.253809E-2,4.3284528E-2,4.0412806E-2,9.092769E-2,5.0640192E-2,4.02473E-2,4.5738414E-2,5.805336E-2,8.711988E-2,6.039685E-2,6.298746E-2,3.6242433E-2,2.817164E-2,3.933132E-3],"split_indices":[15,16,16,24,5,23,16,5,6,16,16,5,8,5,26,26,9,10,24,18,4,13,20,11,26,20,16,6,26,7,20,10,16,20,14,5,13,2,16,9,26,12,24,16,16,16,10,22,16,20,16,16,16,14,24,7,16,20,13,8,10,14,7,0,0,0,0,0,0,0,0,0,0,0,0,0,0,0,0,0,0,0,0,0,0,0,0,0,0,0,0,0,0,0,0,0,0,0,0,0,0,0,0,0,0,0,0,0,0,0,0,0,0,0,0,0,0,0,0,0,0,0,0,0,0,0,0],"split_type":[0,0,0,0,0,0,0,0,0,0,0,0,0,0,0,0,0,0,0,0,0,0,0,0,0,0,0,0,0,0,0,0,0,0,0,0,0,0,0,0,0,0,0,0,0,0,0,0,0,0,0,0,0,0,0,0,0,0,0,0,0,0,0,0,0,0,0,0,0,0,0,0,0,0,0,0,0,0,0,0,0,0,0,0,0,0,0,0,0,0,0,0,0,0,0,0,0,0,0,0,0,0,0,0,0,0,0,0,0,0,0,0,0,0,0,0,0,0,0,0,0,0,0,0,0,0,0],"sum_hessian":[3.6141E4,2.671E4,9.431E3,1.7317E4,9.393E3,2.67E3,6.761E3,1.1717E4,5.6E3,8.069E3,1.324E3,1.569E3,1.101E3,6.556E3,2.05E2,1.1085E4,6.32E2,3.516E3,2.084E3,7.904E3,1.65E2,8.26E2,4.98E2,1.496E3,7.3E1,5.56E2,5.45E2,5.742E3,8.14E2,1.73E2,3.2E1,6.755E3,4.33E3,4.26E2,2.06E2,3.424E3,9.2E1,1.833E3,2.51E2,5.262E3,2.642E3,3E1,1.35E2,3.92E2,4.34E2,1.56E2,3.42E2,1.133E3,3.63E2,3E1,4.3E1,3.76E2,1.8E2,1.32E2,4.13E2,2.938E3,2.804E3,2E1,7.94E2,1.13E2,6E1,2.1E1,1.1E1,6.459E3,2.96E2,1.984E3,2.346E3,2.09E2,2.17E2,6.1E1,1.45E2,3.209E3,2.15E2,3.1E1,6.1E1,1.254E3,5.79E2,2.42E2,9E0,2.786E3,2.476E3,2.618E3,2.4E1,3E0,2.7E1,5.8E1,7.7E1,3.73E2,1.9E1,2E0,4.32E2,3.5E1,1.21E2,3.25E2,1.7E1,6.47E2,4.86E2,7.2E1,2.91E2,2E1,1E1,3.7E1,6E0,2.67E2,1.09E2,1.62E2,1.8E1,9.1E1,4.1E1,9E1,3.23E2,6.73E2,2.265E3,7.68E2,2.036E3,6E0,1.4E1,3.27E2,4.67E2,5.2E1,6.1E1,1.5E1,4.5E1,1E1,1.1E1,9E0,2E0],"tree_param":{"num_deleted":"0","num_feature":"27","num_nodes":"127","size_leaf_vector":"1"}},{"base_weights":[5.517615E-5,-2.3367157E-2,6.638617E-2,-2.7498743E-2,-1.9445466E-2,9.473425E-3,8.8856965E-2,-2.8114513E-2,-1.4493843E-2,-2.280204E-2,-1.4437265E-2,1.6133998E-2,-1.2539954E-2,8.744274E-2,1.3344054E-1,-3.0812822E-2,-2.4866194E-2,-2.088013E-2,5.9907143E-3,-2.5305301E-2,-1.1438435E-2,-1.7876608E-2,-2.5368636E-3,8.988744E-3,4.2426936E-2,-1.7626707E-2,2.3097655E-2,7.897611E-2,9.426478E-2,1.4302357E-1,1.1402184E-1,-3.6174487E-2,-2.9216275E-2,-2.7566426E-2,-1.903978E-2,-2.5190243E-2,6.616199E-4,1.1716475E-2,-1.1842222E-2,-2.6039457E-2,-5.704319E-3,-1.8770956E-2,-7.280556E-3,-1.7025178E-2,-3.668675E-2,4.573636E-3,-1.1004451E-2,-3.7971286E-3,3.5146635E-2,7.669325E-3,9.0817764E-2,-3.5216182E-2,-4.135629E-3,5.987614E-2,-1.3338813E-2,5.974846E-2,8.753125E-2,8.235709E-2,1.064056E-1,1.5268083E-1,9.703645E-2,1.4032722E-1,9.827375E-2,-1.6200012E-2,-1.0326917E-2,-8.9575285E-3,-4.2964737E-3,-9.39201E-3,-6.770623E-3,-6.1894218E-3,-1.2727636E-3,-8.335547E-3,-2.876218E-3,2.7672771E-2,-2.551778E-3,5.3202E-3,-4.9936614E-4,-6.865108E-3,-8.74889E-3,2.3153403E-3,-5.034022E-3,-6.7499974E-3,-1.8598454E-3,-5.2083996E-3,1.6016312E-4,-5.90055E-3,-3.4762914E-3,-9.617736E-3,-1.8094542E-2,2.4929119E-3,-1.0101832E-2,-4.434709E-3,4.2633656E-3,-2.8333205E-3,2.3466976E-2,-3.0735624E-3,1.779458E-2,-1.8045803E-3,3.4498226E-2,4.177765E-2,1.1427174E-2,-8.1007825E-3,-2.3598628E-2,-4.876601E-3,1.27542345E-2,1.1165354E-2,2.6102807E-2,1.1067777E-3,-1.2589465E-2,2.8088547E-2,1.0012852E-2,2.4356976E-2,3.6599185E-2,2.3270223E-2,3.5149544E-2,2.4965193E-2,3.6538273E-2,4.023982E-2,5.7399914E-2,3.913031E-2,1.6081538E-2,6.3107975E-2,3.3690315E-2,1.6928514E-2,3.6225237E-2],"categories":[],"categories_nodes":[],"categories_segments":[],"categories_sizes":[],"default_left":[0,0,0,0,0,0,0,0,0,0,0,0,0,0,0,0,0,0,0,0,0,0,0,0,0,0,0,0,0,0,0,0,0,0,0,0,0,0,0,0,0,0,0,0,0,0,0,0,0,0,0,0,0,0,0,0,0,0,0,0,0,0,0,0,0,0,0,0,0,0,0,0,0,0,0,0,0,0,0,0,0,0,0,0,0,0,0,0,0,0,0,0,0,0,0,0,0,0,0,0,0,0,0,0,0,0,0,0,0,0,0,0,0,0,0,0,0,0,0,0,0,0,0,0,0],"id":4,"left_children":[1,3,5,7,9,11,13,15,17,19,21,23,25,27,29,31,33,35,37,39,41,43,45,47,49,51,53,55,57,59,61,63,65,67,69,71,73,75,-1,77,79,81,83,85,87,89,91,93,95,97,99,101,103,105,107,109,111,113,115,117,119,121,123,-1,-1,-1,-1,-1,-1,-1,-1,-1,-1,-1,-1,-1,-1,-1,-1,-1,-1,-1,-1,-1,-1,-1,-1,-1,-1,-1,-1,-1,-1,-1,-1,-1,-1,-1,-1,-1,-1,-1,-1,-1,-1,-1,-1,-1,-1,-1,-1,-1,-1,-1,-1,-1,-1,-1,-1,-1,-1,-1,-1,-1,-1],"loss_changes":[5.6152725E1,4.3225765E-1,1.2061504E1,1.0373783E-1,2.300911E-1,3.9182895E-1,4.146881E-1,1.0805988E-1,7.730901E-2,2.3311043E-1,2.2519004E-1,3.8493943E-1,1.1298184E-1,3.7128448E-1,2.2026539E-2,5.696392E-2,8.819175E-2,4.179801E-2,3.7167683E-2,9.659672E-2,4.5076653E-2,6.7745686E-2,7.4408166E-2,5.399381E-1,7.359975E-1,1.2894608E-1,1.05324775E-1,4.7706985E-1,5.154419E-1,4.469514E-2,1.6450465E-2,4.6563625E-2,4.9576283E-2,7.127881E-2,4.2046428E-2,1.4916629E-2,6.459213E-2,1.0175124E-2,0E0,6.3206196E-2,3.640257E-2,2.4987891E-2,7.4688494E-2,5.8500886E-2,1.8185526E-2,9.630273E-2,5.393818E-2,5.033015E-1,5.820486E-1,3.7667778E-1,4.6210706E-1,8.20916E-2,1.7539385E-1,2.0738587E-2,1.9652689E-2,8.0638075E-1,4.3311787E-1,2.9684162E-1,6.2931633E-1,5.2480936E-2,3.0721456E-2,2.5445074E-2,3.927371E-2,0E0,0E0,0E0,0E0,0E0,0E0,0E0,0E0,0E0,0E0,0E0,0E0,0E0,0E0,0E0,0E0,0E0,0E0,0E0,0E0,0E0,0E0,0E0,0E0,0E0,0E0,0E0,0E0,0E0,0E0,0E0,0E0,0E0,0E0,0E0,0E0,0E0,0E0,0E0,0E0,0E0,0E0,0E0,0E0,0E0,0E0,0E0,0E0,0E0,0E0,0E0,0E0,0E0,0E0,0E0,0E0,0E0,0E0,0E0,0E0,0E0,0E0],"parents":[2147483647,0,0,1,1,2,2,3,3,4,4,5,5,6,6,7,7,8,8,9,9,10,10,11,11,12,12,13,13,14,14,15,15,16,16,17,17,18,18,19,19,20,20,21,21,22,22,23,23,24,24,25,25,26,26,27,27,28,28,29,29,30,30,31,31,32,32,33,33,34,34,35,35,36,36,37,37,39,39,40,40,41,41,42,42,43,43,44,44,45,45,46,46,47,47,48,48,49,49,50,50,51,51,52,52,53,53,54,54,55,55,56,56,57,57,58,58,59,59,60,60,61,61,62,62],"right_children":[2,4,6,8,10,12,14,16,18,20,22,24,26,28,30,32,34,36,38,40,42,44,46,48,50,52,54,56,58,60,62,64,66,68,70,72,74,76,-1,78,80,82,84,86,88,90,92,94,96,98,100,102,104,106,108,110,112,114,116,118,120,122,124,-1,-1,-1,-1,-1,-1,-1,-1,-1,-1,-1,-1,-1,-1,-1,-1,-1,-1,-1,-1,-1,-1,-1,-1,-1,-1,-1,-1,-1,-1,-1,-1,-1,-1,-1,-1,-1,-1,-1,-1,-1,-1,-1,-1,-1,-1,-1,-1,-1,-1,-1,-1,-1,-1,-1,-1,-1,-1,-1,-1,-1,-1],"split_conditions":[2E0,8.130081E-2,4.3902438E-2,1E0,1E0,2.1138212E-2,5.121951E-1,3E0,1E0,1E0,2.4390244E-1,1E0,1E0,1E0,7.609756E-1,9.756098E-3,1E0,6.01626E-2,1E0,3.58E2,1E0,1E0,1E0,1E0,1E0,3.48E2,1E0,1E0,1E0,5E0,1E0,1E0,1E0,1E0,6E0,1E0,6.341463E-2,3.55E2,-1.1842222E-2,1E0,1E0,1E0,1E0,3.55E2,1.5934959E-1,1E0,5.121951E-1,1E0,3.2520324E-3,1E0,9.756098E-3,1E0,1E0,2.2764228E-2,4E0,1E0,1E0,1E0,1E0,1E0,1E0,1E0,1E0,-1.6200012E-2,-1.0326917E-2,-8.9575285E-3,-4.2964737E-3,-9.39201E-3,-6.770623E-3,-6.1894218E-3,-1.2727636E-3,-8.335547E-3,-2.876218E-3,2.7672771E-2,-2.551778E-3,5.3202E-3,-4.9936614E-4,-6.865108E-3,-8.74889E-3,2.3153403E-3,-5.034022E-3,-6.7499974E-3,-1.8598454E-3,-5.2083996E-3,1.6016312E-4,-5.90055E-3,-3.4762914E-3,-9.617736E-3,-1.8094542E-2,2.4929119E-3,-1.0101832E-2,-4.434709E-3,4.2633656E-3,-2.8333205E-3,2.3466976E-2,-3.0735624E-3,1.779458E-2,-1.8045803E-3,3.4498226E-2,4.177765E-2,1.1427174E-2,-8.1007825E-3,-2.3598628E-2,-4.876601E-3,1.27542345E-2,1.1165354E-2,2.6102807E-2,1.1067777E-3,-1.2589465E-2,2.8088547E-2,1.0012852E-2,2.4356976E-2,3.6599185E-2,2.3270223E-2,3.5149544E-2,2.4965193E-2,3.6538273E-2,4.023982E-2,5.7399914E-2,3.913031E-2,1.6081538E-2,6.3107975E-2,3.3690315E-2,1.6928514E-2,3.6225237E-2],"split_indices":[15,16,16,5,4,16,16,24,12,2,16,6,7,11,16,16,6,16,8,26,11,1,7,11,14,26,8,12,14,24,10,3,10,11,24,11,16,26,0,18,20,5,20,26,16,18,16,5,16,12,16,11,12,16,24,14,5,5,13,7,20,13,8,0,0,0,0,0,0,0,0,0,0,0,0,0,0,0,0,0,0,0,0,0,0,0,0,0,0,0,0,0,0,0,0,0,0,0,0,0,0,0,0,0,0,0,0,0,0,0,0,0,0,0,0,0,0,0,0,0,0,0,0,0,0],"split_type":[0,0,0,0,0,0,0,0,0,0,0,0,0,0,0,0,0,0,0,0,0,0,0,0,0,0,0,0,0,0,0,0,0,0,0,0,0,0,0,0,0,0,0,0,0,0,0,0,0,0,0,0,0,0,0,0,0,0,0,0,0,0,0,0,0,0,0,0,0,0,0,0,0,0,0,0,0,0,0,0,0,0,0,0,0,0,0,0,0,0,0,0,0,0,0,0,0,0,0,0,0,0,0,0,0,0,0,0,0,0,0,0,0,0,0,0,0,0,0,0,0,0,0,0,0],"sum_hessian":[3.6141E4,2.671E4,9.431E3,1.3004E4,1.3706E4,2.67E3,6.761E3,1.2415E4,5.89E2,8.204E3,5.502E3,2.05E3,6.2E2,6.556E3,2.05E2,6.777E3,5.638E3,4.49E2,1.4E2,6.722E3,1.482E3,4.268E3,1.234E3,1.613E3,4.37E2,5.43E2,7.7E1,2.931E3,3.625E3,1.33E2,7.2E1,1.55E3,5.227E3,3.85E3,1.788E3,3.74E2,7.5E1,1.25E2,1.5E1,6.479E3,2.43E2,5.35E2,9.47E2,4.085E3,1.83E2,6.71E2,5.63E2,1.084E3,5.29E2,2.55E2,1.82E2,2.35E2,3.08E2,3.8E1,3.9E1,9.05E2,2.026E3,1.834E3,1.791E3,1.08E2,2.5E1,2.4E1,4.8E1,1.36E2,1.414E3,5.01E3,2.17E2,2.199E3,1.651E3,1.614E3,1.74E2,3.2E2,5.4E1,6E0,6.9E1,8.6E1,3.9E1,3.227E3,3.252E3,1.1E2,1.33E2,4.12E2,1.23E2,4.13E2,5.34E2,2.747E3,1.338E3,1.55E2,2.8E1,6.12E2,5.9E1,4.9E2,7.3E1,1.015E3,6.9E1,1.84E2,3.45E2,2.27E2,2.8E1,9.4E1,8.8E1,1.99E2,3.6E1,2.45E2,6.3E1,2.2E1,1.6E1,2.5E1,1.4E1,3.95E2,5.1E2,1.714E3,3.12E2,1.615E3,2.19E2,7.17E2,1.074E3,7.6E1,3.2E1,1.3E1,1.2E1,5E0,1.9E1,1.8E1,3E1],"tree_param":{"num_deleted":"0","num_feature":"27","num_nodes":"125","size_leaf_vector":"1"}},{"base_weights":[5.277932E-5,-1.6362004E-2,4.6538703E-2,-1.779931E-2,-1.0572648E-2,6.410443E-3,6.2201027E-2,-1.9961834E-2,-1.4963835E-2,-1.3930622E-2,-5.517262E-3,-8.348669E-3,1.3546761E-2,4.6896394E-2,6.572778E-2,-2.0930836E-2,-9.403708E-3,-1.8358601E-2,-1.2020833E-2,-1.8814841E-2,-1.1432275E-2,9.088342E-4,-1.21471565E-2,-2.680301E-2,1.1043798E-2,2.1136334E-2,-4.4789757E-3,7.789318E-2,3.962645E-2,5.7700217E-2,7.5218916E-2,-2.194092E-2,-9.779789E-3,-1.296437E-2,-1.296765E-3,-1.48951905E-2,-2.260608E-2,-1.9035302E-2,-4.901891E-3,-2.4330536E-2,-1.29481265E-2,-1.37071535E-2,-1.9958057E-3,8.541293E-3,-6.075666E-3,-1.9199401E-2,9.3355455E-4,-6.1971038E-3,-4.943037E-2,-9.661816E-3,3.4295123E-2,3.6471044E-3,3.6849998E-2,-2.0203539E-4,-2.6254635E-2,6.918967E-2,1.4163102E-1,2.592284E-2,5.4323666E-2,6.840984E-2,4.1889034E-2,8.7641194E-2,6.1307058E-2,-7.4616936E-3,-5.830264E-3,-4.7875633E-3,-5.9392373E-4,-1.1715249E-3,-5.456984E-3,1.1788643E-2,-1.1282495E-3,2.6377304E-3,-4.953101E-3,-7.475315E-3,-4.280019E-3,-6.9845747E-3,-3.995862E-3,-3.704073E-3,7.2462123E-4,-6.5147383E-3,-1.2232606E-2,-6.068823E-3,-1.0995525E-3,1.0320521E-4,-4.9269507E-3,-4.891812E-3,7.567127E-4,1.8544646E-2,1.3608836E-3,-3.2574846E-3,4.265442E-3,-1.3404173E-2,-4.9149077E-3,1.7207387E-3,-2.891848E-3,9.630798E-3,-7.3741656E-3,2.5389567E-3,-1.7391486E-2,-1.1060199E-2,8.7169055E-3,4.3565813E-3,4.110979E-2,-1.207123E-3,3.1477515E-2,5.732565E-3,2.5275446E-2,3.2405995E-3,-4.920389E-3,-2.1601982E-2,-2.8984684E-3,8.82442E-3,2.361934E-2,1.7783845E-2,5.14823E-2,1.5894003E-2,3.9082393E-3,8.688049E-3,2.2142211E-2,2.1628983E-2,1.3154644E-2,7.5924164E-3,2.2008013E-2,2.0882864E-2,3.2306027E-2,1.1798242E-2,2.565132E-2],"categories":[],"categories_nodes":[],"categories_segments":[],"categories_sizes":[],"default_left":[0,0,0,0,0,0,0,0,0,0,0,0,0,0,0,0,0,0,0,0,0,0,0,0,0,0,0,0,0,0,0,0,0,0,0,0,0,0,0,0,0,0,0,0,0,0,0,0,0,0,0,0,0,0,0,0,0,0,0,0,0,0,0,0,0,0,0,0,0,0,0,0,0,0,0,0,0,0,0,0,0,0,0,0,0,0,0,0,0,0,0,0,0,0,0,0,0,0,0,0,0,0,0,0,0,0,0,0,0,0,0,0,0,0,0,0,0,0,0,0,0,0,0,0,0,0,0],"id":5,"left_children":[1,3,5,7,9,11,13,15,17,19,21,23,25,27,29,31,33,35,37,39,41,43,45,47,49,51,53,55,57,59,61,63,65,67,69,71,73,75,77,79,81,83,85,87,89,91,93,95,97,99,101,103,105,107,109,111,113,115,117,119,121,123,125,-1,-1,-1,-1,-1,-1,-1,-1,-1,-1,-1,-1,-1,-1,-1,-1,-1,-1,-1,-1,-1,-1,-1,-1,-1,-1,-1,-1,-1,-1,-1,-1,-1,-1,-1,-1,-1,-1,-1,-1,-1,-1,-1,-1,-1,-1,-1,-1,-1,-1,-1,-1,-1,-1,-1,-1,-1,-1,-1,-1,-1,-1,-1,-1],"loss_changes":[2.7579144E1,2.2207642E-1,5.9276314E0,1.3090277E-1,9.014982E-2,2.7912095E-1,3.630867E-1,1.2396479E-1,9.231424E-2,3.874743E-2,9.046006E-2,3.0950016E-1,2.4443308E-1,2.8400278E-1,4.1554642E-1,1.24979496E-1,2.9484324E-2,6.2904954E-2,2.4778694E-1,3.4600317E-2,4.537493E-2,5.7572216E-2,9.641747E-2,2.0624563E-1,2.0349607E-1,3.4531415E-1,4.9355287E-2,1.2389374E-1,2.0684433E-1,5.0343704E-1,4.3047237E-1,7.440138E-2,4.4548377E-2,3.3540368E-2,3.145466E-2,9.085715E-2,3.6830902E-2,6.0371518E-2,1.343166E-1,2.2978961E-2,3.5411537E-2,6.503573E-2,2.6679493E-2,1.0981537E-1,5.4894798E-2,4.7996104E-2,1.8689465E-2,1.6484013E-1,1.0482657E-1,2.3702107E-1,4.0226814E-1,4.6344724E-1,5.5511296E-1,7.9323374E-2,6.535173E-2,7.889962E-2,5.8948696E-2,1.8667573E-1,2.4396157E-1,1.5810966E-1,6.295459E-1,4.73238E-1,6.311312E-1,0E0,0E0,0E0,0E0,0E0,0E0,0E0,0E0,0E0,0E0,0E0,0E0,0E0,0E0,0E0,0E0,0E0,0E0,0E0,0E0,0E0,0E0,0E0,0E0,0E0,0E0,0E0,0E0,0E0,0E0,0E0,0E0,0E0,0E0,0E0,0E0,0E0,0E0,0E0,0E0,0E0,0E0,0E0,0E0,0E0,0E0,0E0,0E0,0E0,0E0,0E0,0E0,0E0,0E0,0E0,0E0,0E0,0E0,0E0,0E0,0E0,0E0,0E0,0E0],"parents":[2147483647,0,0,1,1,2,2,3,3,4,4,5,5,6,6,7,7,8,8,9,9,10,10,11,11,12,12,13,13,14,14,15,15,16,16,17,17,18,18,19,19,20,20,21,21,22,22,23,23,24,24,25,25,26,26,27,27,28,28,29,29,30,30,31,31,32,32,33,33,34,34,35,35,36,36,37,37,38,38,39,39,40,40,41,41,42,42,43,43,44,44,45,45,46,46,47,47,48,48,49,49,50,50,51,51,52,52,53,53,54,54,55,55,56,56,57,57,58,58,59,59,60,60,61,61,62,62],"right_children":[2,4,6,8,10,12,14,16,18,20,22,24,26,28,30,32,34,36,38,40,42,44,46,48,50,52,54,56,58,60,62,64,66,68,70,72,74,76,78,80,82,84,86,88,90,92,94,96,98,100,102,104,106,108,110,112,114,116,118,120,122,124,126,-1,-1,-1,-1,-1,-1,-1,-1,-1,-1,-1,-1,-1,-1,-1,-1,-1,-1,-1,-1,-1,-1,-1,-1,-1,-1,-1,-1,-1,-1,-1,-1,-1,-1,-1,-1,-1,-1,-1,-1,-1,-1,-1,-1,-1,-1,-1,-1,-1,-1,-1,-1,-1,-1,-1,-1,-1,-1,-1,-1,-1,-1,-1,-1],"split_conditions":[2E0,1.8373984E-1,2.601626E-2,1E0,1E0,2E0,8.130081E-2,1E0,1E0,1E0,1E0,1E0,1.6260162E-2,5.8536585E-2,1E0,1E0,3.56E2,1E0,1E0,3.54E2,1E0,1E0,1E0,3.46E2,1E0,1E0,2.4390243E-2,6E0,1E0,1E0,1E0,3.53E2,1E0,2E0,1E0,6.504065E-3,1E0,3.55E2,1E0,3.53E2,1E0,2.0813008E-1,1E0,2.0487805E-1,3.821138E-1,1E0,3.4471545E-1,1E0,4.878049E-3,1E0,1E0,1E0,1E0,3.56E2,1E0,1E0,4.5528457E-2,6.341463E-2,6.99187E-2,4.0162602E-1,1E0,1E0,1E0,-7.4616936E-3,-5.830264E-3,-4.7875633E-3,-5.9392373E-4,-1.1715249E-3,-5.456984E-3,1.1788643E-2,-1.1282495E-3,2.6377304E-3,-4.953101E-3,-7.475315E-3,-4.280019E-3,-6.9845747E-3,-3.995862E-3,-3.704073E-3,7.2462123E-4,-6.5147383E-3,-1.2232606E-2,-6.068823E-3,-1.0995525E-3,1.0320521E-4,-4.9269507E-3,-4.891812E-3,7.567127E-4,1.8544646E-2,1.3608836E-3,-3.2574846E-3,4.265442E-3,-1.3404173E-2,-4.9149077E-3,1.7207387E-3,-2.891848E-3,9.630798E-3,-7.3741656E-3,2.5389567E-3,-1.7391486E-2,-1.1060199E-2,8.7169055E-3,4.3565813E-3,4.110979E-2,-1.207123E-3,3.1477515E-2,5.732565E-3,2.5275446E-2,3.2405995E-3,-4.920389E-3,-2.1601982E-2,-2.8984684E-3,8.82442E-3,2.361934E-2,1.7783845E-2,5.14823E-2,1.5894003E-2,3.9082393E-3,8.688049E-3,2.2142211E-2,2.1628983E-2,1.3154644E-2,7.5924164E-3,2.2008013E-2,2.0882864E-2,3.2306027E-2,1.1798242E-2,2.565132E-2],"split_indices":[15,16,16,11,4,24,16,10,12,19,17,19,16,16,6,5,26,14,14,26,20,7,10,26,14,8,16,24,9,20,9,26,12,24,4,16,19,26,13,26,9,16,2,16,16,2,16,20,16,20,7,5,12,26,19,13,16,16,16,16,5,8,20,0,0,0,0,0,0,0,0,0,0,0,0,0,0,0,0,0,0,0,0,0,0,0,0,0,0,0,0,0,0,0,0,0,0,0,0,0,0,0,0,0,0,0,0,0,0,0,0,0,0,0,0,0,0,0,0,0,0,0,0,0,0,0,0],"split_type":[0,0,0,0,0,0,0,0,0,0,0,0,0,0,0,0,0,0,0,0,0,0,0,0,0,0,0,0,0,0,0,0,0,0,0,0,0,0,0,0,0,0,0,0,0,0,0,0,0,0,0,0,0,0,0,0,0,0,0,0,0,0,0,0,0,0,0,0,0,0,0,0,0,0,0,0,0,0,0,0,0,0,0,0,0,0,0,0,0,0,0,0,0,0,0,0,0,0,0,0,0,0,0,0,0,0,0,0,0,0,0,0,0,0,0,0,0,0,0,0,0,0,0,0,0,0,0],"sum_hessian":[3.6141E4,2.671E4,9.431E3,2.1396E4,5.314E3,2.648E3,6.783E3,1.2135E4,9.261E3,3.192E3,2.122E3,8.63E2,1.785E3,1.273E3,5.51E3,1.1114E4,1.021E3,4.298E3,4.963E3,1.078E3,2.114E3,1.078E3,1.044E3,4.42E2,4.21E2,1.256E3,5.29E2,2.4E2,1.033E3,2.989E3,2.521E3,1.019E4,9.24E2,7.09E2,3.12E2,2.37E3,1.928E3,2.499E3,2.464E3,5.54E2,5.24E2,1.703E3,4.11E2,5.15E2,5.63E2,6.78E2,3.66E2,2.32E2,2.1E2,2.23E2,1.98E2,5.95E2,6.61E2,4.43E2,8.6E1,2.13E2,2.7E1,5.36E2,4.97E2,1.78E3,1.209E3,1.329E3,1.192E3,4.693E3,5.497E3,5.15E2,4.09E2,2.6E2,4.49E2,1.7E1,2.95E2,1.51E2,2.219E3,1.508E3,4.2E2,1.432E3,1.067E3,1.221E3,1.243E3,4.8E2,7.4E1,2.93E2,2.31E2,2.76E2,1.427E3,9.8E1,3.13E2,3.5E1,4.8E2,4.56E2,1.07E2,6.6E1,6.12E2,2.52E2,1.14E2,7.5E1,1.57E2,2.7E1,1.83E2,1.31E2,9.2E1,1.67E2,3.1E1,5.54E2,4.1E1,4.82E2,1.79E2,2.64E2,1.79E2,2.2E1,6.4E1,4.2E1,1.71E2,8E0,1.9E1,1.72E2,3.64E2,2.17E2,2.8E2,1.546E3,2.34E2,7.93E2,4.16E2,7.02E2,6.27E2,6.26E2,5.66E2],"tree_param":{"num_deleted":"0","num_feature":"27","num_nodes":"127","size_leaf_vector":"1"}},{"base_weights":[4.5160326E-5,-1.1456251E-2,3.2616638E-2,-1.5283863E-2,-9.910243E-3,4.5120856E-3,4.3586027E-2,-1.6756706E-2,-1.1132581E-2,-7.798331E-3,-1.2016679E-2,-4.3229936E-3,1.4388795E-2,4.2536665E-2,7.6887734E-2,3.0232025E-2,-1.692842E-2,-5.9034373E-3,-1.4767765E-2,-1.0887093E-2,-3.970096E-3,-1.2311969E-2,8.459673E-3,-1.3790112E-2,1.5936993E-2,6.4661303E-3,6.059065E-2,4.0593885E-2,6.1143838E-2,3.866193E-2,8.10179E-2,-3.3094734E-2,7.1748085E-2,-1.9467713E-2,-1.3921791E-2,-1.050749E-2,1.1588825E-2,-2.6205223E-2,-1.307706E-2,-6.899627E-3,-1.4444488E-2,-8.103775E-3,5.9732167E-5,-1.3255891E-2,-9.195193E-3,-9.027251E-4,2.1066047E-2,-1.97795E-2,1.2074137E-2,4.6297025E-2,-2.9607283E-2,-1.053461E-3,6.1268218E-2,9.491058E-2,2.327623E-2,4.3208923E-2,2.3068648E-2,4.45589E-2,8.4241465E-2,4.4321805E-2,1.3663427E-2,1.0720371E-1,6.4146504E-2,-1.3429275E-2,-2.195034E-3,-4.190784E-3,2.65809E-2,-7.4173408E-3,-5.0080097E-3,-4.277246E-3,4.864596E-3,-2.282647E-3,-6.828046E-3,-3.2612619E-3,6.815631E-3,-5.743234E-3,-1.1291365E-2,-3.003631E-3,-6.3387346E-3,-6.578713E-4,-3.1896404E-3,-5.287241E-3,-2.7837919E-3,-3.321942E-3,5.667455E-4,2.9023935E-4,-1.0174937E-2,-4.556021E-3,-3.2841552E-3,-6.240702E-3,-2.293444E-3,1.8065141E-3,-1.32767325E-2,7.803912E-3,-1.5842438E-3,-8.916466E-3,-1.9481669E-3,-6.4248256E-3,1.6261386E-2,-7.3455623E-4,1.8020833E-2,-4.5446295E-2,-5.260795E-3,1.004252E-2,-3.1432176E-3,3.2689314E-2,1.3520633E-2,1.2143374E-2,3.914666E-2,2.696685E-2,-1.6925329E-3,1.0442783E-2,1.506901E-2,5.1383907E-4,1.1463461E-2,5.9572128E-3,1.8558336E-2,1.7325845E-2,3.124979E-2,1.1998477E-2,-4.6983088E-4,4.231591E-2,2.3698678E-2,2.0175278E-2,-5.2802684E-3],"categories":[],"categories_nodes":[],"categories_segments":[],"categories_sizes":[],"default_left":[0,0,0,0,0,0,0,0,0,0,0,0,0,0,0,0,0,0,0,0,0,0,0,0,0,0,0,0,0,0,0,0,0,0,0,0,0,0,0,0,0,0,0,0,0,0,0,0,0,0,0,0,0,0,0,0,0,0,0,0,0,0,0,0,0,0,0,0,0,0,0,0,0,0,0,0,0,0,0,0,0,0,0,0,0,0,0,0,0,0,0,0,0,0,0,0,0,0,0,0,0,0,0,0,0,0,0,0,0,0,0,0,0,0,0,0,0,0,0,0,0,0,0,0,0],"id":6,"left_children":[1,3,5,7,9,11,13,15,17,19,21,23,25,27,29,31,33,35,37,39,41,43,45,47,49,51,53,55,57,59,61,63,65,67,69,71,73,75,77,79,81,83,85,87,89,91,93,95,97,99,101,103,105,107,109,111,113,115,117,-1,119,121,123,-1,-1,-1,-1,-1,-1,-1,-1,-1,-1,-1,-1,-1,-1,-1,-1,-1,-1,-1,-1,-1,-1,-1,-1,-1,-1,-1,-1,-1,-1,-1,-1,-1,-1,-1,-1,-1,-1,-1,-1,-1,-1,-1,-1,-1,-1,-1,-1,-1,-1,-1,-1,-1,-1,-1,-1,-1,-1,-1,-1,-1,-1],"loss_changes":[1.3539816E1,1.5791154E-1,2.9075928E0,4.678881E-2,8.4558964E-2,2.3121795E-1,2.3379993E-1,4.625249E-2,3.8215756E-2,1.12348735E-1,5.769658E-2,2.6855317E-1,4.575265E-1,2.3534584E-1,2.9390693E-2,5.7585105E-2,4.2857528E-2,6.6804975E-2,2.2630125E-2,7.4513376E-2,7.073042E-2,2.7503371E-2,1.6070541E-2,1.4802392E-1,6.180663E-1,4.40588E-1,2.3214579E-1,2.7214622E-1,2.3375154E-1,5.7970367E-2,7.485461E-2,2.379816E-3,2.0019583E-2,4.4214487E-2,2.6433945E-2,2.3125574E-2,4.3492682E-2,1.1549994E-2,2.5380775E-2,4.3580152E-2,4.547721E-2,6.221479E-2,6.63724E-2,3.1952024E-2,3.9179087E-2,2.398194E-2,7.6969583E-3,1.02173775E-1,2.5513348E-1,1.800673E-1,2.6069808E-1,3.065469E-1,9.47611E-2,1.7869711E-1,1.7194986E-1,3.040352E-1,2.508846E-1,1.5391463E-1,1.3014948E-1,0E0,7.6819453E-3,5.6650043E-2,3.036809E-2,0E0,0E0,0E0,0E0,0E0,0E0,0E0,0E0,0E0,0E0,0E0,0E0,0E0,0E0,0E0,0E0,0E0,0E0,0E0,0E0,0E0,0E0,0E0,0E0,0E0,0E0,0E0,0E0,0E0,0E0,0E0,0E0,0E0,0E0,0E0,0E0,0E0,0E0,0E0,0E0,0E0,0E0,0E0,0E0,0E0,0E0,0E0,0E0,0E0,0E0,0E0,0E0,0E0,0E0,0E0,0E0,0E0,0E0,0E0,0E0,0E0,0E0],"parents":[2147483647,0,0,1,1,2,2,3,3,4,4,5,5,6,6,7,7,8,8,9,9,10,10,11,11,12,12,13,13,14,14,15,15,16,16,17,17,18,18,19,19,20,20,21,21,22,22,23,23,24,24,25,25,26,26,27,27,28,28,29,29,30,30,31,31,32,32,33,33,34,34,35,35,36,36,37,37,38,38,39,39,40,40,41,41,42,42,43,43,44,44,45,45,46,46,47,47,48,48,49,49,50,50,51,51,52,52,53,53,54,54,55,55,56,56,57,57,58,58,60,60,61,61,62,62],"right_children":[2,4,6,8,10,12,14,16,18,20,22,24,26,28,30,32,34,36,38,40,42,44,46,48,50,52,54,56,58,60,62,64,66,68,70,72,74,76,78,80,82,84,86,88,90,92,94,96,98,100,102,104,106,108,110,112,114,116,118,-1,120,122,124,-1,-1,-1,-1,-1,-1,-1,-1,-1,-1,-1,-1,-1,-1,-1,-1,-1,-1,-1,-1,-1,-1,-1,-1,-1,-1,-1,-1,-1,-1,-1,-1,-1,-1,-1,-1,-1,-1,-1,-1,-1,-1,-1,-1,-1,-1,-1,-1,-1,-1,-1,-1,-1,-1,-1,-1,-1,-1,-1,-1,-1,-1],"split_conditions":[2E0,5.5284552E-2,2.601626E-2,1E0,1E0,1E0,5.121951E-1,3.44E2,1E0,1E0,3.58E2,1E0,1E0,6E0,1E0,1E0,1E0,1E0,4.878049E-3,1E0,1E0,1E0,1.1219512E-1,1E0,1.300813E-2,1E0,9.756098E-3,5E0,2.1788618E-1,1E0,1E0,1E0,1E0,8.130081E-3,3.59E2,2.1138212E-2,4.878049E-3,4E0,5.0406504E-2,1E0,3.55E2,1E0,1E0,1E0,3.46E2,1E0,1.4308943E-1,1.300813E-2,1E0,1.6260162E-3,1E0,1E0,3.2520324E-3,1E0,1E0,3.48E2,1E0,1E0,1E0,4.4321805E-2,1E0,1E0,1E0,-1.3429275E-2,-2.195034E-3,-4.190784E-3,2.65809E-2,-7.4173408E-3,-5.0080097E-3,-4.277246E-3,4.864596E-3,-2.282647E-3,-6.828046E-3,-3.2612619E-3,6.815631E-3,-5.743234E-3,-1.1291365E-2,-3.003631E-3,-6.3387346E-3,-6.578713E-4,-3.1896404E-3,-5.287241E-3,-2.7837919E-3,-3.321942E-3,5.667455E-4,2.9023935E-4,-1.0174937E-2,-4.556021E-3,-3.2841552E-3,-6.240702E-3,-2.293444E-3,1.8065141E-3,-1.32767325E-2,7.803912E-3,-1.5842438E-3,-8.916466E-3,-1.9481669E-3,-6.4248256E-3,1.6261386E-2,-7.3455623E-4,1.8020833E-2,-4.5446295E-2,-5.260795E-3,1.004252E-2,-3.1432176E-3,3.2689314E-2,1.3520633E-2,1.2143374E-2,3.914666E-2,2.696685E-2,-1.6925329E-3,1.0442783E-2,1.506901E-2,5.1383907E-4,1.1463461E-2,5.9572128E-3,1.8558336E-2,1.7325845E-2,3.124979E-2,1.1998477E-2,-4.6983088E-4,4.231591E-2,2.3698678E-2,2.0175278E-2,-5.2802684E-3],"split_indices":[15,16,16,6,18,14,16,26,8,9,26,11,6,24,24,19,23,9,16,7,4,2,16,12,16,7,16,24,16,13,10,4,9,16,26,16,16,24,16,20,26,2,0,4,26,6,16,16,8,16,4,9,16,21,18,26,12,13,14,0,12,23,5,0,0,0,0,0,0,0,0,0,0,0,0,0,0,0,0,0,0,0,0,0,0,0,0,0,0,0,0,0,0,0,0,0,0,0,0,0,0,0,0,0,0,0,0,0,0,0,0,0,0,0,0,0,0,0,0,0,0,0,0,0,0],"split_type":[0,0,0,0,0,0,0,0,0,0,0,0,0,0,0,0,0,0,0,0,0,0,0,0,0,0,0,0,0,0,0,0,0,0,0,0,0,0,0,0,0,0,0,0,0,0,0,0,0,0,0,0,0,0,0,0,0,0,0,0,0,0,0,0,0,0,0,0,0,0,0,0,0,0,0,0,0,0,0,0,0,0,0,0,0,0,0,0,0,0,0,0,0,0,0,0,0,0,0,0,0,0,0,0,0,0,0,0,0,0,0,0,0,0,0,0,0,0,0,0,0,0,0,0,0],"sum_hessian":[3.6141E4,2.671E4,9.431E3,7.682E3,1.9028E4,2.648E3,6.783E3,5.668E3,2.014E3,9.504E3,9.524E3,1.398E3,1.25E3,6.578E3,2.05E2,2E1,5.648E3,8.27E2,1.187E3,5.259E3,4.245E3,9.389E3,1.35E2,9.53E2,4.45E2,1.068E3,1.82E2,5.959E3,6.19E2,2.1E1,1.84E2,8E0,1.2E1,3.059E3,2.589E3,6.55E2,1.72E2,1.51E2,1.036E3,2.481E3,2.778E3,2.095E3,2.15E3,7.204E3,2.185E3,7.8E1,5.7E1,7.74E2,1.79E2,2.67E2,1.78E2,9.4E2,1.28E2,9.4E1,8.8E1,5.184E3,7.75E2,3.62E2,2.57E2,3E0,1.8E1,7E1,1.14E2,5E0,3E0,2E0,1E1,1.054E3,2.005E3,2.561E3,2.8E1,5.31E2,1.24E2,5.7E1,1.15E2,9.5E1,5.6E1,7.52E2,2.84E2,1.098E3,1.383E3,1.718E3,1.06E3,1.615E3,4.8E2,2.095E3,5.5E1,3.92E3,3.284E3,2.56E2,1.929E3,6.8E1,1E1,4.8E1,9E0,4.42E2,3.32E2,1E2,7.9E1,5.9E1,2.08E2,1.5E1,1.63E2,2.01E2,7.39E2,3.1E1,9.7E1,3.8E1,5.6E1,2.6E1,6.2E1,2.363E3,2.821E3,3.22E2,4.53E2,1.5E2,2.12E2,1.12E2,1.45E2,6E0,1.2E1,3E1,4E1,1.1E2,4E0],"tree_param":{"num_deleted":"0","num_feature":"27","num_nodes":"125","size_leaf_vector":"1"}},{"base_weights":[3.8788763E-5,-8.02249E-3,2.2867963E-2,-8.536902E-3,-7.90988E-4,7.129396E-3,3.2770965E-2,-9.951078E-3,-6.411872E-3,-1.1830294E-2,7.8656466E-4,1.9378167E-3,1.8429687E-2,2.6986962E-2,3.802146E-2,-1.0707961E-2,-2.0697245E-3,-5.247452E-3,-1.1190345E-2,-2.6878892E-2,4.303217E-3,-2.2539443E-3,6.325375E-3,-5.620076E-3,1.2750776E-2,3.4296717E-2,2.1383734E-3,1.735874E-2,3.7356686E-2,2.8542046E-2,4.550191E-2,-1.2537184E-2,-8.397777E-3,-5.8253715E-3,4.1888067E-3,-9.113038E-3,-4.183704E-3,-1.6049568E-2,-8.085399E-3,-1.2345203E-2,-1.745482E-2,-9.595931E-3,1.5169707E-2,2.7844529E-3,-6.485392E-3,4.896712E-4,1.9401336E-2,2.2712218E-2,-9.56295E-3,-1.1575664E-3,2.6182652E-2,1.934041E-2,4.585501E-2,-1.7325193E-2,4.115717E-2,-7.441025E-2,2.0117143E-2,1.8702734E-2,4.9583E-2,4.1871995E-2,1.0788656E-2,8.015949E-2,3.785895E-2,-4.197656E-3,-1.2316988E-3,-3.4113287E-3,-1.7833695E-3,-3.0042592E-3,5.151694E-4,4.682624E-5,4.4000554E-3,-4.243593E-3,-1.3026672E-3,-1.366026E-3,1.396024E-3,-5.028449E-3,8.917243E-3,-3.8315505E-3,-4.960207E-4,-7.374392E-3,-1.4792614E-3,-4.7307727E-3,1.3994516E-2,7.9310825E-3,2.8388653E-4,-2.0825062E-3,3.5065438E-3,3.3208672E-3,-2.9785235E-3,1.0362763E-3,-7.2753704E-3,1.7188927E-3,8.471684E-3,-4.2990036E-3,2.6540678E-2,-7.157454E-3,1.2408202E-6,-4.9655296E-2,5.445362E-4,-4.0828303E-2,8.59435E-3,3.6735728E-3,3.362395E-2,2.0462131E-2,9.396121E-3,-1.3332347E-2,2.484311E-4,1.778845E-2,-1.2981956E-2,-4.636669E-2,1.9645717E-2,4.1078744E-3,1.4814767E-2,1.33216735E-2,-4.4815633E-3,1.6602151E-2,-7.5380197E-3,5.884861E-3,1.7613182E-2,7.3010083E-3,-2.403132E-3,3.2159626E-2,1.7838186E-2,1.4142733E-2,5.050057E-3],"categories":[],"categories_nodes":[],"categories_segments":[],"categories_sizes":[],"default_left":[0,0,0,0,0,0,0,0,0,0,0,0,0,0,0,0,0,0,0,0,0,0,0,0,0,0,0,0,0,0,0,0,0,0,0,0,0,0,0,0,0,0,0,0,0,0,0,0,0,0,0,0,0,0,0,0,0,0,0,0,0,0,0,0,0,0,0,0,0,0,0,0,0,0,0,0,0,0,0,0,0,0,0,0,0,0,0,0,0,0,0,0,0,0,0,0,0,0,0,0,0,0,0,0,0,0,0,0,0,0,0,0,0,0,0,0,0,0,0,0,0,0,0,0,0],"id":7,"left_children":[1,3,5,7,9,11,13,15,17,19,21,23,25,27,29,31,33,35,37,39,41,43,45,47,49,51,53,55,57,59,61,63,65,67,69,71,73,75,77,-1,79,81,83,85,87,89,91,93,95,97,99,101,103,105,107,109,111,113,115,117,119,121,123,-1,-1,-1,-1,-1,-1,-1,-1,-1,-1,-1,-1,-1,-1,-1,-1,-1,-1,-1,-1,-1,-1,-1,-1,-1,-1,-1,-1,-1,-1,-1,-1,-1,-1,-1,-1,-1,-1,-1,-1,-1,-1,-1,-1,-1,-1,-1,-1,-1,-1,-1,-1,-1,-1,-1,-1,-1,-1,-1,-1,-1,-1],"loss_changes":[6.65148E0,9.9357486E-2,1.4698286E0,7.487607E-2,3.0921083E-2,2.1374448E-1,1.7477942E-1,8.9283705E-2,5.539918E-2,5.4014314E-2,2.6184862E-2,2.0421618E-1,2.964202E-1,2.747159E-1,2.1370125E-1,5.761552E-2,3.088625E-2,3.292373E-2,2.9321268E-2,1.4749028E-2,1.6457342E-2,2.142305E-2,4.20359E-2,1.6454355E-1,1.9207625E-1,9.955025E-2,4.3131837E-1,3.639875E-1,3.0172026E-1,3.166616E-1,4.4541812E-1,9.343612E-2,4.3982E-2,2.5956402E-2,2.082943E-2,4.1448474E-2,2.0565502E-2,2.526483E-2,3.5939656E-2,0E0,6.2156655E-3,1.7401863E-2,9.750758E-3,3.9831363E-2,3.311126E-2,2.810212E-2,2.0378463E-2,4.3970728E-1,1.7669874E-1,2.4752752E-1,2.1312085E-1,1.66418E-1,1.04099154E-1,1.8659729E-1,2.9199457E-1,4.8102582E-1,2.6084256E-1,4.5634785E-1,3.459339E-1,2.85537E-1,1.468969E-1,1.6432893E-1,2.7032435E-1,0E0,0E0,0E0,0E0,0E0,0E0,0E0,0E0,0E0,0E0,0E0,0E0,0E0,0E0,0E0,0E0,0E0,0E0,0E0,0E0,0E0,0E0,0E0,0E0,0E0,0E0,0E0,0E0,0E0,0E0,0E0,0E0,0E0,0E0,0E0,0E0,0E0,0E0,0E0,0E0,0E0,0E0,0E0,0E0,0E0,0E0,0E0,0E0,0E0,0E0,0E0,0E0,0E0,0E0,0E0,0E0,0E0,0E0,0E0,0E0,0E0,0E0],"parents":[2147483647,0,0,1,1,2,2,3,3,4,4,5,5,6,6,7,7,8,8,9,9,10,10,11,11,12,12,13,13,14,14,15,15,16,16,17,17,18,18,19,19,20,20,21,21,22,22,23,23,24,24,25,25,26,26,27,27,28,28,29,29,30,30,31,31,32,32,33,33,34,34,35,35,36,36,37,37,38,38,40,40,41,41,42,42,43,43,44,44,45,45,46,46,47,47,48,48,49,49,50,50,51,51,52,52,53,53,54,54,55,55,56,56,57,57,58,58,59,59,60,60,61,61,62,62],"right_children":[2,4,6,8,10,12,14,16,18,20,22,24,26,28,30,32,34,36,38,40,42,44,46,48,50,52,54,56,58,60,62,64,66,68,70,72,74,76,78,-1,80,82,84,86,88,90,92,94,96,98,100,102,104,106,108,110,112,114,116,118,120,122,124,-1,-1,-1,-1,-1,-1,-1,-1,-1,-1,-1,-1,-1,-1,-1,-1,-1,-1,-1,-1,-1,-1,-1,-1,-1,-1,-1,-1,-1,-1,-1,-1,-1,-1,-1,-1,-1,-1,-1,-1,-1,-1,-1,-1,-1,-1,-1,-1,-1,-1,-1,-1,-1,-1,-1,-1,-1,-1,-1,-1,-1,-1],"split_conditions":[2E0,6E0,7.479675E-2,3.55E2,1E0,1E0,1E0,1E0,5E0,1E0,1E0,3.55E2,1E0,1E0,3.48E2,1E0,1E0,2.4390243E-2,6.8292685E-2,1E0,1E0,1E0,1E0,4.878049E-3,1E0,1E0,1E0,1E0,1E0,3.46E2,3.54E2,1E0,1E0,1E0,3.48E2,1E0,3.821138E-1,1E0,1E0,-1.2345203E-2,1E0,1E0,1E0,2.2764228E-2,1.9512195E-2,4.2601627E-1,1E0,1E0,1.300813E-2,1.6260162E-3,1E0,6E0,2.1138212E-2,1E0,6.01626E-2,1E0,4.2601627E-1,1E0,4.4552845E-1,2.601626E-1,1E0,1E0,1E0,-4.197656E-3,-1.2316988E-3,-3.4113287E-3,-1.7833695E-3,-3.0042592E-3,5.151694E-4,4.682624E-5,4.4000554E-3,-4.243593E-3,-1.3026672E-3,-1.366026E-3,1.396024E-3,-5.028449E-3,8.917243E-3,-3.8315505E-3,-4.960207E-4,-7.374392E-3,-1.4792614E-3,-4.7307727E-3,1.3994516E-2,7.9310825E-3,2.8388653E-4,-2.0825062E-3,3.5065438E-3,3.3208672E-3,-2.9785235E-3,1.0362763E-3,-7.2753704E-3,1.7188927E-3,8.471684E-3,-4.2990036E-3,2.6540678E-2,-7.157454E-3,1.2408202E-6,-4.9655296E-2,5.445362E-4,-4.0828303E-2,8.59435E-3,3.6735728E-3,3.362395E-2,2.0462131E-2,9.396121E-3,-1.3332347E-2,2.484311E-4,1.778845E-2,-1.2981956E-2,-4.636669E-2,1.9645717E-2,4.1078744E-3,1.4814767E-2,1.33216735E-2,-4.4815633E-3,1.6602151E-2,-7.5380197E-3,5.884861E-3,1.7613182E-2,7.3010083E-3,-2.403132E-3,3.2159626E-2,1.7838186E-2,1.4142733E-2,5.050057E-3],"split_indices":[15,24,16,26,3,11,19,5,24,21,6,26,12,23,26,11,9,16,16,12,9,7,9,16,14,18,7,21,7,26,26,10,13,18,26,23,16,10,20,0,9,5,12,16,16,16,22,14,16,16,4,24,16,23,16,20,16,8,16,16,9,11,22,0,0,0,0,0,0,0,0,0,0,0,0,0,0,0,0,0,0,0,0,0,0,0,0,0,0,0,0,0,0,0,0,0,0,0,0,0,0,0,0,0,0,0,0,0,0,0,0,0,0,0,0,0,0,0,0,0,0,0,0,0,0],"split_type":[0,0,0,0,0,0,0,0,0,0,0,0,0,0,0,0,0,0,0,0,0,0,0,0,0,0,0,0,0,0,0,0,0,0,0,0,0,0,0,0,0,0,0,0,0,0,0,0,0,0,0,0,0,0,0,0,0,0,0,0,0,0,0,0,0,0,0,0,0,0,0,0,0,0,0,0,0,0,0,0,0,0,0,0,0,0,0,0,0,0,0,0,0,0,0,0,0,0,0,0,0,0,0,0,0,0,0,0,0,0,0,0,0,0,0,0,0,0,0,0,0,0,0,0,0],"sum_hessian":[3.6141E4,2.671E4,9.431E3,2.4936E4,1.774E3,3.643E3,5.788E3,1.497E4,9.966E3,2.21E2,1.553E3,2.497E3,1.146E3,2.757E3,3.031E3,1.3658E4,1.312E3,8.015E3,1.951E3,1.14E2,1.07E2,1.003E3,5.5E2,1.47E3,1.027E3,5.8E2,5.66E2,1.431E3,1.326E3,1.339E3,1.692E3,7.62E3,6.038E3,8.2E2,4.92E2,1.728E3,6.287E3,7.59E2,1.192E3,4.4E1,7E1,4.7E1,6E1,4.58E2,5.45E2,3.81E2,1.69E2,1.79E2,1.291E3,5.05E2,5.22E2,2.54E2,3.26E2,3.78E2,1.88E2,4.1E1,1.39E3,5.26E2,8E2,7.64E2,5.75E2,3.04E2,1.388E3,6.498E3,1.122E3,2.728E3,3.31E3,5.27E2,2.93E2,3.56E2,1.36E2,8.4E2,8.88E2,6.035E3,2.52E2,7.48E2,1.1E1,6.89E2,5.03E2,4.4E1,2.6E1,4.3E1,4E0,3.3E1,2.7E1,2.19E2,2.39E2,8.9E1,4.56E2,3.41E2,4E1,6.7E1,1.02E2,1.15E2,6.4E1,5.17E2,7.74E2,8E0,4.97E2,7E0,5.15E2,2.37E2,1.7E1,1.27E2,1.99E2,1.51E2,2.27E2,1.55E2,3.3E1,2.6E1,1.5E1,1.141E3,2.49E2,2.98E2,2.28E2,7.43E2,5.7E1,3.3E2,4.34E2,3.34E2,2.41E2,1.3E2,1.74E2,9.62E2,4.26E2],"tree_param":{"num_deleted":"0","num_feature":"27","num_nodes":"125","size_leaf_vector":"1"}},{"base_weights":[2.9576748E-5,-5.616215E-3,1.6018203E-2,-5.976417E-3,-5.525653E-4,1.8249345E-3,2.1622196E-2,-1.7837241E-2,-5.821512E-3,-8.297962E-3,5.5427547E-4,-1.9458988E-3,1.8612962E-2,1.7510846E-2,2.7055137E-2,-1.01713855E-2,-2.5205549E-2,-7.290944E-3,-4.745366E-3,-1.8999564E-2,3.174094E-3,-1.1168763E-3,5.943142E-3,-2.8217514E-3,3.545689E-2,5.3687715E-3,4.080202E-2,1.3300067E-2,3.24795E-2,1.5971506E-2,3.2144263E-2,-3.0177975E-5,-1.7556502E-2,-2.1244401E-2,-3.2394804E-2,-8.193402E-3,1.8689774E-3,-6.525267E-4,-5.3535835E-3,-2.907981E-2,-1.2343074E-2,8.399854E-3,-1.2056645E-2,-3.3919453E-3,2.7672774E-3,-1.8657874E-2,8.832525E-3,-3.8692034E-3,2.0457804E-2,6.702116E-2,2.0014452E-2,-2.3406627E-2,1.7169762E-2,2.2340076E-2,7.647227E-2,-1.0857744E-2,2.0550014E-2,4.5451462E-2,1.48771275E-2,1.0597443E-3,3.3342615E-2,5.3884193E-2,2.4478162E-2,-1.9833704E-3,1.2603658E-3,-3.3470348E-3,-8.298041E-3,-8.141272E-3,2.336624E-3,-8.306499E-3,-1.223774E-2,-2.6396094E-3,-8.128322E-4,-6.676835E-4,3.8165804E-3,-1.3953577E-3,1.7508799E-3,-2.517718E-3,-1.328512E-3,-7.5233523E-3,-1.1100523E-2,-5.3525222E-3,-2.4943496E-4,-3.7553158E-4,5.217565E-3,-8.325398E-3,4.4164862E-3,-2.5543692E-3,1.0962851E-3,-7.9826225E-4,4.1036955E-3,-1.143217E-2,-1.4742679E-3,2.2898393E-3,6.9491672E-3,-2.983683E-3,5.4081116E-4,2.5155177E-2,2.1058777E-3,6.603181E-3,3.652425E-2,1.0100667E-3,8.566126E-3,-1.8015275E-2,3.419003E-3,2.7466149E-3,2.7689388E-2,2.7757619E-2,9.89162E-4,4.4934064E-2,1.7317165E-2,-1.1196686E-2,5.307953E-3,1.2959286E-2,4.823337E-3,1.4550847E-2,-1.826624E-2,1.19894E-2,-5.238584E-5,-2.5021662E-3,2.1608979E-2,2.3935765E-3,1.641058E-2,5.189102E-3,1.9346904E-2,3.2956745E-3,1.0143403E-2],"categories":[],"categories_nodes":[],"categories_segments":[],"categories_sizes":[],"default_left":[0,0,0,0,0,0,0,0,0,0,0,0,0,0,0,0,0,0,0,0,0,0,0,0,0,0,0,0,0,0,0,0,0,0,0,0,0,0,0,0,0,0,0,0,0,0,0,0,0,0,0,0,0,0,0,0,0,0,0,0,0,0,0,0,0,0,0,0,0,0,0,0,0,0,0,0,0,0,0,0,0,0,0,0,0,0,0,0,0,0,0,0,0,0,0,0,0,0,0,0,0,0,0,0,0,0,0,0,0,0,0,0,0,0,0,0,0,0,0,0,0,0,0,0,0,0,0],"id":8,"left_children":[1,3,5,7,9,11,13,15,17,19,21,23,25,27,29,31,33,35,37,39,41,43,45,47,49,51,53,55,57,59,61,63,65,67,69,71,73,75,77,79,81,83,85,87,89,91,93,95,97,99,101,103,105,107,109,111,113,115,117,119,121,123,125,-1,-1,-1,-1,-1,-1,-1,-1,-1,-1,-1,-1,-1,-1,-1,-1,-1,-1,-1,-1,-1,-1,-1,-1,-1,-1,-1,-1,-1,-1,-1,-1,-1,-1,-1,-1,-1,-1,-1,-1,-1,-1,-1,-1,-1,-1,-1,-1,-1,-1,-1,-1,-1,-1,-1,-1,-1,-1,-1,-1,-1,-1,-1,-1],"loss_changes":[3.2625723E0,4.871595E-2,7.501719E-1,4.5712948E-2,1.5221533E-2,1.6912349E-1,1.5056753E-1,1.7875113E-2,3.8892925E-2,2.7315106E-2,1.4001361E-2,7.15809E-2,1.4378022E-1,2.4235833E-1,1.6368437E-1,1.1907615E-2,3.953658E-3,8.602756E-2,3.5377383E-2,7.3574595E-3,8.69723E-3,1.049857E-2,2.6322886E-2,5.2090697E-2,2.3030065E-2,1.0499198E-1,1.1880481E-1,5.270528E-1,1.9226885E-1,2.3775771E-1,3.31002E-1,1.9213756E-3,5.640162E-3,1.8689875E-2,1.083836E-3,3.1417727E-2,4.1533776E-2,4.7768727E-2,3.4752816E-2,4.9872324E-4,4.4793645E-3,7.0515736E-3,1.2176281E-2,2.7066372E-2,2.6038546E-2,1.0237632E-2,5.4971296E-3,7.039508E-2,7.778488E-2,3.673248E-2,4.8794104E-3,1.1546518E-1,1.3101618E-1,1.6275156E-1,7.656726E-2,5.257933E-1,2.3367953E-1,1.6064978E-1,1.3594702E-1,3.3083552E-1,2.2926903E-1,2.0026934E-1,1.8549925E-1,0E0,0E0,0E0,0E0,0E0,0E0,0E0,0E0,0E0,0E0,0E0,0E0,0E0,0E0,0E0,0E0,0E0,0E0,0E0,0E0,0E0,0E0,0E0,0E0,0E0,0E0,0E0,0E0,0E0,0E0,0E0,0E0,0E0,0E0,0E0,0E0,0E0,0E0,0E0,0E0,0E0,0E0,0E0,0E0,0E0,0E0,0E0,0E0,0E0,0E0,0E0,0E0,0E0,0E0,0E0,0E0,0E0,0E0,0E0,0E0,0E0,0E0,0E0,0E0],"parents":[2147483647,0,0,1,1,2,2,3,3,4,4,5,5,6,6,7,7,8,8,9,9,10,10,11,11,12,12,13,13,14,14,15,15,16,16,17,17,18,18,19,19,20,20,21,21,22,22,23,23,24,24,25,25,26,26,27,27,28,28,29,29,30,30,31,31,32,32,33,33,34,34,35,35,36,36,37,37,38,38,39,39,40,40,41,41,42,42,43,43,44,44,45,45,46,46,47,47,48,48,49,49,50,50,51,51,52,52,53,53,54,54,55,55,56,56,57,57,58,58,59,59,60,60,61,61,62,62],"right_children":[2,4,6,8,10,12,14,16,18,20,22,24,26,28,30,32,34,36,38,40,42,44,46,48,50,52,54,56,58,60,62,64,66,68,70,72,74,76,78,80,82,84,86,88,90,92,94,96,98,100,102,104,106,108,110,112,114,116,118,120,122,124,126,-1,-1,-1,-1,-1,-1,-1,-1,-1,-1,-1,-1,-1,-1,-1,-1,-1,-1,-1,-1,-1,-1,-1,-1,-1,-1,-1,-1,-1,-1,-1,-1,-1,-1,-1,-1,-1,-1,-1,-1,-1,-1,-1,-1,-1,-1,-1,-1,-1,-1,-1,-1,-1,-1,-1,-1,-1,-1,-1,-1,-1,-1,-1,-1],"split_conditions":[2E0,6E0,4.3902438E-2,1.6260162E-3,1E0,1E0,1E0,1E0,3.53E2,1E0,3.45E2,3.58E2,1E0,1E0,3.47E2,1E0,4E0,1E0,2E0,1E0,3.398374E-1,1E0,6.504065E-3,1E0,1E0,2E0,4E0,1E0,1E0,1E0,3.54E2,1E0,3.54E2,1E0,1E0,1E0,3.0243903E-1,1E0,3E0,1E0,1E0,1E0,3.821138E-1,1E0,1E0,1E0,2.5691056E-1,1E0,1E0,1E0,4.878049E-3,6.504065E-3,1E0,3.46E2,1E0,3E0,1E0,1E0,1E0,1E0,1E0,9.430894E-2,1E0,-1.9833704E-3,1.2603658E-3,-3.3470348E-3,-8.298041E-3,-8.141272E-3,2.336624E-3,-8.306499E-3,-1.223774E-2,-2.6396094E-3,-8.128322E-4,-6.676835E-4,3.8165804E-3,-1.3953577E-3,1.7508799E-3,-2.517718E-3,-1.328512E-3,-7.5233523E-3,-1.1100523E-2,-5.3525222E-3,-2.4943496E-4,-3.7553158E-4,5.217565E-3,-8.325398E-3,4.4164862E-3,-2.5543692E-3,1.0962851E-3,-7.9826225E-4,4.1036955E-3,-1.143217E-2,-1.4742679E-3,2.2898393E-3,6.9491672E-3,-2.983683E-3,5.4081116E-4,2.5155177E-2,2.1058777E-3,6.603181E-3,3.652425E-2,1.0100667E-3,8.566126E-3,-1.8015275E-2,3.419003E-3,2.7466149E-3,2.7689388E-2,2.7757619E-2,9.89162E-4,4.4934064E-2,1.7317165E-2,-1.1196686E-2,5.307953E-3,1.2959286E-2,4.823337E-3,1.4550847E-2,-1.826624E-2,1.19894E-2,-5.238584E-5,-2.5021662E-3,2.1608979E-2,2.3935765E-3,1.641058E-2,5.189102E-3,1.9346904E-2,3.2956745E-3,1.0143403E-2],"split_indices":[15,24,16,16,3,6,6,13,26,21,26,26,14,5,26,12,24,10,24,12,16,4,16,5,18,24,24,7,9,14,26,6,26,6,4,5,16,6,24,6,13,23,16,21,6,7,16,8,4,13,16,16,12,26,23,24,24,10,13,10,12,16,12,0,0,0,0,0,0,0,0,0,0,0,0,0,0,0,0,0,0,0,0,0,0,0,0,0,0,0,0,0,0,0,0,0,0,0,0,0,0,0,0,0,0,0,0,0,0,0,0,0,0,0,0,0,0,0,0,0,0,0,0,0,0,0,0],"split_type":[0,0,0,0,0,0,0,0,0,0,0,0,0,0,0,0,0,0,0,0,0,0,0,0,0,0,0,0,0,0,0,0,0,0,0,0,0,0,0,0,0,0,0,0,0,0,0,0,0,0,0,0,0,0,0,0,0,0,0,0,0,0,0,0,0,0,0,0,0,0,0,0,0,0,0,0,0,0,0,0,0,0,0,0,0,0,0,0,0,0,0,0,0,0,0,0,0,0,0,0,0,0,0,0,0,0,0,0,0,0,0,0,0,0,0,0,0,0,0,0,0,0,0,0,0,0,0],"sum_hessian":[3.6141E4,2.671E4,9.431E3,2.4936E4,1.774E3,2.67E3,6.761E3,3.2E2,2.4616E4,2.21E2,1.553E3,2.181E3,4.89E2,3.851E3,2.91E3,1.58E2,1.62E2,1.0404E4,1.4212E4,1.14E2,1.07E2,1.186E3,3.67E2,2.132E3,4.9E1,3.07E2,1.82E2,3.007E3,8.44E2,9.17E2,1.993E3,6.7E1,9.1E1,1.07E2,5.5E1,9.471E3,9.33E2,1.839E3,1.2373E4,4.4E1,7E1,8E1,2.7E1,7.48E2,4.38E2,3.8E1,3.29E2,2.041E3,9.1E1,1.5E1,3.4E1,8.9E1,2.18E2,1.21E2,6.1E1,6.94E2,2.313E3,4.85E2,3.59E2,4.94E2,4.23E2,5.18E2,1.475E3,2.6E1,4.1E1,5.7E1,3.4E1,8.9E1,1.8E1,3.8E1,1.7E1,8.529E3,9.42E2,6.78E2,2.55E2,1.138E3,7.01E2,2.886E3,9.487E3,3.2E1,1.2E1,4.7E1,2.3E1,3.9E1,4.1E1,1.7E1,1E1,4.33E2,3.15E2,2.93E2,1.45E2,1.5E1,2.3E1,3.05E2,2.4E1,9.85E2,1.056E3,1.5E1,7.6E1,9E0,6E0,1.2E1,2.2E1,4.3E1,4.6E1,1.98E2,2E1,2.5E1,9.6E1,1.1E1,5E1,3.6E2,3.34E2,3.8E2,1.933E3,4.72E2,1.3E1,1.34E2,2.25E2,4.37E2,5.7E1,1.94E2,2.29E2,1.17E2,4.01E2,6.04E2,8.71E2],"tree_param":{"num_deleted":"0","num_feature":"27","num_nodes":"127","size_leaf_vector":"1"}},{"base_weights":[2.6589212E-5,-3.9338833E-3,1.1242466E-2,-5.097051E-3,-2.581714E-3,2.9551792E-3,1.605874E-2,-7.218008E-3,-3.364761E-3,-5.603801E-3,3.18557E-4,3.2013704E-3,-3.1176807E-2,1.110414E-2,1.9952022E-2,-1.1989712E-2,-6.3625765E-3,-4.384126E-4,-5.8305673E-3,-2.967422E-3,-8.098415E-3,-4.8701735E-3,5.1850867E-3,-1.8356339E-3,8.213304E-3,-6.475162E-4,1.9663174E-2,2.7459405E-2,1.0503585E-2,-1.674869E-2,2.592412E-3,3.780872E-3,-6.9908816E-3,-1.6642341E-3,1.0192009E-2,-3.0211015E-3,-9.809602E-3,1.6455533E-2,-4.0237694E-3,-3.5856308E-3,-1.2214644E-2,-1.2801646E-3,-7.01599E-3,-8.8976295E-4,1.0990315E-2,-5.490959E-3,1.2509719E-2,-2.8042316E-3,1.7027956E-2,-6.7213075E-3,2.873386E-2,1.4312506E-2,4.0586628E-2,4.2119008E-2,2.2584688E-2,2.3301926E-2,9.90343E-4,-2.999188E-3,-7.4850298E-3,-4.657548E-3,2.2534116E-3,-2.2263578E-3,3.2999222E-3,-2.6306503E-3,-1.1450769E-3,-1.0969029E-3,1.7465275E-3,6.087938E-3,-3.861147E-4,-2.4649703E-3,8.436324E-4,-2.723158E-3,-1.0030416E-2,9.183263E-3,-1.9127862E-3,-2.2123965E-4,-1.9878552E-3,5.276097E-4,-2.4508927E-3,-2.3312462E-4,-4.773498E-3,-1.8525191E-3,5.141195E-4,-1.891363E-3,-1.2569469E-2,-7.632855E-3,1.0251522E-4,2.5839251E-3,8.504576E-3,2.1799393E-3,-4.0520607E-3,-6.5517505E-3,6.8190596E-3,1.4047441E-3,-6.742332E-3,-4.3834915E-4,8.7183155E-3,-3.4683372E-3,8.693534E-3,1.4101204E-2,2.1304599E-4,-5.4813446E-3,6.395307E-3,3.3100883E-3,1.6216943E-2,9.884695E-3,4.1480493E-2,2.4592273E-3,1.0046095E-2,3.7134578E-3,1.7383322E-2,-5.628818E-3,5.4296507E-3],"categories":[],"categories_nodes":[],"categories_segments":[],"categories_sizes":[],"default_left":[0,0,0,0,0,0,0,0,0,0,0,0,0,0,0,0,0,0,0,0,0,0,0,0,0,0,0,0,0,0,0,0,0,0,0,0,0,0,0,0,0,0,0,0,0,0,0,0,0,0,0,0,0,0,0,0,0,0,0,0,0,0,0,0,0,0,0,0,0,0,0,0,0,0,0,0,0,0,0,0,0,0,0,0,0,0,0,0,0,0,0,0,0,0,0,0,0,0,0,0,0,0,0,0,0,0,0,0,0,0,0,0,0],"id":9,"left_children":[1,3,5,7,9,11,13,15,17,19,21,23,-1,25,27,29,31,33,35,37,39,41,43,45,47,49,51,53,55,57,59,61,63,65,67,69,71,73,75,77,79,81,83,85,87,89,91,93,95,97,99,101,103,105,107,109,111,-1,-1,-1,-1,-1,-1,-1,-1,-1,-1,-1,-1,-1,-1,-1,-1,-1,-1,-1,-1,-1,-1,-1,-1,-1,-1,-1,-1,-1,-1,-1,-1,-1,-1,-1,-1,-1,-1,-1,-1,-1,-1,-1,-1,-1,-1,-1,-1,-1,-1,-1,-1,-1,-1,-1,-1],"loss_changes":[1.605478E0,4.199788E-2,3.764199E-1,5.2728593E-2,1.08283E-1,9.1584064E-2,1.148411E-1,2.6268095E-2,5.7038426E-2,3.97653E-2,1.592335E-1,8.738848E-2,0E0,2.6424384E-1,2.36557E-1,6.80515E-2,3.4919605E-2,4.7137056E-2,4.792811E-2,6.0448885E-2,5.7689324E-2,2.3502104E-2,1.14764996E-1,9.062727E-2,1.6854356E-1,1.9792277E-1,1.6958988E-1,1.3196695E-1,1.8017241E-1,4.0669695E-2,2.1683559E-2,2.5958825E-2,2.906257E-2,4.8383847E-2,4.3391902E-2,7.6273605E-2,3.0409768E-2,4.931967E-2,2.3873206E-2,3.6370087E-2,6.870051E-2,1.6761042E-2,4.713609E-2,4.8115186E-2,6.842016E-2,1.409134E-1,1.237192E-1,1.1379396E-1,2.145144E-1,1.5912008E-1,9.724614E-2,2.770339E-1,1.2240857E-1,4.0366745E-1,2.1900761E-1,2.3806903E-1,2.8759298E-1,0E0,0E0,0E0,0E0,0E0,0E0,0E0,0E0,0E0,0E0,0E0,0E0,0E0,0E0,0E0,0E0,0E0,0E0,0E0,0E0,0E0,0E0,0E0,0E0,0E0,0E0,0E0,0E0,0E0,0E0,0E0,0E0,0E0,0E0,0E0,0E0,0E0,0E0,0E0,0E0,0E0,0E0,0E0,0E0,0E0,0E0,0E0,0E0,0E0,0E0,0E0,0E0,0E0,0E0,0E0,0E0],"parents":[2147483647,0,0,1,1,2,2,3,3,4,4,5,5,6,6,7,7,8,8,9,9,10,10,11,11,13,13,14,14,15,15,16,16,17,17,18,18,19,19,20,20,21,21,22,22,23,23,24,24,25,25,26,26,27,27,28,28,29,29,30,30,31,31,32,32,33,33,34,34,35,35,36,36,37,37,38,38,39,39,40,40,41,41,42,42,43,43,44,44,45,45,46,46,47,47,48,48,49,49,50,50,51,51,52,52,53,53,54,54,55,55,56,56],"right_children":[2,4,6,8,10,12,14,16,18,20,22,24,-1,26,28,30,32,34,36,38,40,42,44,46,48,50,52,54,56,58,60,62,64,66,68,70,72,74,76,78,80,82,84,86,88,90,92,94,96,98,100,102,104,106,108,110,112,-1,-1,-1,-1,-1,-1,-1,-1,-1,-1,-1,-1,-1,-1,-1,-1,-1,-1,-1,-1,-1,-1,-1,-1,-1,-1,-1,-1,-1,-1,-1,-1,-1,-1,-1,-1,-1,-1,-1,-1,-1,-1,-1,-1,-1,-1,-1,-1,-1,-1,-1,-1,-1,-1,-1,-1],"split_conditions":[2E0,1E0,7.1544714E-2,1E0,1E0,3.59E2,1E0,8.130081E-3,1E0,1E0,1E0,1E0,-3.1176807E-2,1E0,1E0,1E0,1.1382114E-2,2.601626E-1,1E0,6.504065E-3,1E0,1E0,1E0,5E0,1E0,1E0,1E0,2.195122E-1,1E0,1E0,1E0,1E0,4E0,4E0,1E0,1E0,2E-1,1E0,1E0,1E0,2E0,3.48E2,4.1951218E-1,4.878049E-3,2.6504064E-1,1.1382114E-2,4.878049E-3,1E0,1.1382114E-2,6E0,3.4471545E-1,1E0,3.398374E-1,2.1788618E-1,1E0,1E0,1E0,-2.999188E-3,-7.4850298E-3,-4.657548E-3,2.2534116E-3,-2.2263578E-3,3.2999222E-3,-2.6306503E-3,-1.1450769E-3,-1.0969029E-3,1.7465275E-3,6.087938E-3,-3.861147E-4,-2.4649703E-3,8.436324E-4,-2.723158E-3,-1.0030416E-2,9.183263E-3,-1.9127862E-3,-2.2123965E-4,-1.9878552E-3,5.276097E-4,-2.4508927E-3,-2.3312462E-4,-4.773498E-3,-1.8525191E-3,5.141195E-4,-1.891363E-3,-1.2569469E-2,-7.632855E-3,1.0251522E-4,2.5839251E-3,8.504576E-3,2.1799393E-3,-4.0520607E-3,-6.5517505E-3,6.8190596E-3,1.4047441E-3,-6.742332E-3,-4.3834915E-4,8.7183155E-3,-3.4683372E-3,8.693534E-3,1.4101204E-2,2.1304599E-4,-5.4813446E-3,6.395307E-3,3.3100883E-3,1.6216943E-2,9.884695E-3,4.1480493E-2,2.4592273E-3,1.0046095E-2,3.7134578E-3,1.7383322E-2,-5.628818E-3,5.4296507E-3],"split_indices":[15,11,16,4,12,26,11,16,13,14,14,14,0,22,18,6,16,16,18,16,7,8,13,24,13,5,10,16,21,18,18,13,24,24,14,9,16,8,21,8,24,26,16,16,16,16,16,12,16,24,16,12,16,16,13,14,6,0,0,0,0,0,0,0,0,0,0,0,0,0,0,0,0,0,0,0,0,0,0,0,0,0,0,0,0,0,0,0,0,0,0,0,0,0,0,0,0,0,0,0,0,0,0,0,0,0,0,0,0,0,0,0,0],"split_type":[0,0,0,0,0,0,0,0,0,0,0,0,0,0,0,0,0,0,0,0,0,0,0,0,0,0,0,0,0,0,0,0,0,0,0,0,0,0,0,0,0,0,0,0,0,0,0,0,0,0,0,0,0,0,0,0,0,0,0,0,0,0,0,0,0,0,0,0,0,0,0,0,0,0,0,0,0,0,0,0,0,0,0,0,0,0,0,0,0,0,0,0,0,0,0,0,0,0,0,0,0,0,0,0,0,0,0,0,0,0,0,0,0],"sum_hessian":[3.6141E4,2.671E4,9.431E3,1.4357E4,1.2353E4,3.467E3,5.964E3,6.453E3,7.904E3,6.049E3,6.304E3,3.46E3,7E0,2.626E3,3.338E3,9.79E2,5.474E3,3.615E3,4.289E3,2.942E3,3.107E3,3.051E3,3.253E3,1.726E3,1.734E3,1.107E3,1.519E3,1.859E3,1.479E3,7.38E2,2.41E2,3.19E2,5.155E3,3.242E3,3.73E2,2.515E3,1.774E3,1.51E2,2.791E3,1.483E3,1.624E3,1.142E3,1.909E3,1.59E3,1.663E3,1.376E3,3.5E2,7.71E2,9.63E2,9.18E2,1.89E2,1.211E3,3.08E2,4.62E2,1.397E3,6.3E2,8.49E2,4.06E2,3.32E2,5.1E1,1.9E2,1.25E2,1.94E2,3.303E3,1.852E3,2.561E3,6.81E2,1.98E2,1.75E2,1.33E3,1.185E3,1.722E3,5.2E1,9.3E1,5.8E1,1.234E3,1.557E3,6.85E2,7.98E2,3.97E2,1.227E3,4.33E2,7.09E2,1.872E3,3.7E1,7.5E1,1.515E3,1.464E3,1.99E2,5.31E2,8.45E2,8E1,2.7E2,5.59E2,2.12E2,3.8E2,5.83E2,8.09E2,1.09E2,1.14E2,7.5E1,2.14E2,9.97E2,9.7E1,2.11E2,4.23E2,3.9E1,6.03E2,7.94E2,4.8E2,1.5E2,3.94E2,4.55E2],"tree_param":{"num_deleted":"0","num_feature":"27","num_nodes":"113","size_leaf_vector":"1"}},{"base_weights":[2.0195897E-5,-2.7551304E-3,7.879793E-3,-2.66797E-3,-1.3794632E-2,3.7190986E-3,1.2675947E-2,-2.5203486E-3,-8.877899E-3,-1.0515759E-2,-2.7384976E-2,-1.3767997E-3,1.2310524E-2,7.3859007E-3,1.8676499E-2,-4.0381025E-3,-1.8468918E-3,-7.3102303E-3,-2.2260321E-2,-3.4159385E-3,-2.2828093E-2,-9.710608E-3,1.875262E-3,-4.9072662E-3,1.5425851E-2,1.786204E-2,-2.0243952E-3,1.5818706E-2,-1.476154E-3,-5.616496E-2,2.1939177E-2,2.9017132E-2,-4.125064E-3,-2.9926172E-3,-6.822821E-4,-3.1697408E-3,-1.3313655E-2,-1.7249016E-2,-3.1700186E-2,-5.4535884E-3,6.8973275E-3,-1.2252975E-2,-6.0505667E-3,-7.082534E-3,5.178999E-2,2.4699101E-2,-2.7162118E-2,6.8663317E-3,3.7850354E-2,-1.1617555E-1,3.9036574E-3,-2.0465718E-4,3.6376797E-2,-1.31068E-2,1.725364E-2,-6.0661517E-2,-4.657514E-2,7.3986076E-2,1.9287605E-2,-9.324338E-3,1.6538555E-2,-7.9514063E-4,-1.697434E-3,-1.2225409E-3,5.194603E-4,-7.255903E-4,2.2971407E-4,-1.7671854E-3,2.138633E-3,-4.9425494E-3,-2.069596E-3,-6.344563E-3,1.9151956E-3,-1.2447729E-2,-6.26949E-3,-3.2600402E-3,1.1848105E-3,6.0074064E-3,-2.8000777E-3,2.9172592E-2,8.375282E-3,9.711719E-3,-3.1220858E-4,7.5956513E-3,-1.6135866E-2,-1.5472705E-3,6.034092E-3,5.111275E-3,2.2957535E-2,-1.428747E-2,-6.632823E-2,5.1011103E-3,-1.26830125E-2,6.344332E-3,-8.025649E-3,1.7359054E-2,2.2312654E-3,1.0963011E-3,-8.2203E-3,-4.7769165E-3,1.5060018E-2,-1.7113982E-2,1.3409572E-2,1.7283212E-2,2.7734721E-2,1.7421935E-3,9.614163E-3],"categories":[],"categories_nodes":[],"categories_segments":[],"categories_sizes":[],"default_left":[0,0,0,0,0,0,0,0,0,0,0,0,0,0,0,0,0,0,0,0,0,0,0,0,0,0,0,0,0,0,0,0,0,0,0,0,0,0,0,0,0,0,0,0,0,0,0,0,0,0,0,0,0,0,0,0,0,0,0,0,0,0,0,0,0,0,0,0,0,0,0,0,0,0,0,0,0,0,0,0,0,0,0,0,0,0,0,0,0,0,0,0,0,0,0,0,0,0,0,0,0,0,0,0,0,0,0],"id":10,"left_children":[1,3,5,7,9,11,13,15,17,19,21,23,25,27,29,31,33,35,37,39,41,-1,-1,43,45,47,49,51,53,55,57,59,61,63,65,67,69,71,73,75,-1,-1,-1,77,79,81,83,85,87,89,91,93,95,97,99,-1,101,103,105,-1,-1,-1,-1,-1,-1,-1,-1,-1,-1,-1,-1,-1,-1,-1,-1,-1,-1,-1,-1,-1,-1,-1,-1,-1,-1,-1,-1,-1,-1,-1,-1,-1,-1,-1,-1,-1,-1,-1,-1,-1,-1,-1,-1,-1,-1,-1,-1],"loss_changes":[7.883852E-1,2.5664702E-2,1.8817163E-1,2.427344E-2,9.025276E-3,2.2119871E-1,1.3892895E-1,2.6454762E-2,1.2739483E-2,1.478263E-2,6.9075953E-3,1.8824252E-1,1.4972717E-1,1.7414889E-1,5.02297E-1,2.2989318E-2,2.3927711E-2,1.3678923E-2,2.48079E-3,5.9904875E-3,2.1467954E-3,0E0,0E0,3.237426E-1,2.1827672E-1,2.977695E-1,3.563946E-1,3.9332265E-1,2.4790975E-1,1.11025125E-1,2.7003098E-1,3.466767E-2,1.7925337E-2,4.6237454E-2,2.2365933E-2,9.232881E-3,4.449591E-3,4.189944E-3,1.3541467E-3,5.234736E-3,0E0,0E0,0E0,1.5432324E-1,1.025348E-1,8.9505285E-2,1.3969034E-1,1.396368E-1,3.85867E-1,1.7646852E-1,3.038062E-1,3.8149145E-1,3.247761E-1,1.6829024E-1,4.7737056E-1,0E0,8.092296E-2,2.3396075E-2,3.2197595E-1,0E0,0E0,0E0,0E0,0E0,0E0,0E0,0E0,0E0,0E0,0E0,0E0,0E0,0E0,0E0,0E0,0E0,0E0,0E0,0E0,0E0,0E0,0E0,0E0,0E0,0E0,0E0,0E0,0E0,0E0,0E0,0E0,0E0,0E0,0E0,0E0,0E0,0E0,0E0,0E0,0E0,0E0,0E0,0E0,0E0,0E0,0E0,0E0],"parents":[2147483647,0,0,1,1,2,2,3,3,4,4,5,5,6,6,7,7,8,8,9,9,10,10,11,11,12,12,13,13,14,14,15,15,16,16,17,17,18,18,19,19,20,20,23,23,24,24,25,25,26,26,27,27,28,28,29,29,30,30,31,31,32,32,33,33,34,34,35,35,36,36,37,37,38,38,39,39,43,43,44,44,45,45,46,46,47,47,48,48,49,49,50,50,51,51,52,52,53,53,54,54,56,56,57,57,58,58],"right_children":[2,4,6,8,10,12,14,16,18,20,22,24,26,28,30,32,34,36,38,40,42,-1,-1,44,46,48,50,52,54,56,58,60,62,64,66,68,70,72,74,76,-1,-1,-1,78,80,82,84,86,88,90,92,94,96,98,100,-1,102,104,106,-1,-1,-1,-1,-1,-1,-1,-1,-1,-1,-1,-1,-1,-1,-1,-1,-1,-1,-1,-1,-1,-1,-1,-1,-1,-1,-1,-1,-1,-1,-1,-1,-1,-1,-1,-1,-1,-1,-1,-1,-1,-1,-1,-1,-1,-1,-1,-1],"split_conditions":[2E0,1E0,1E0,1E0,1.2682927E-1,1E0,1E0,5.8536585E-2,2.6504064E-1,1E0,2.699187E-1,1E0,2.2601625E-1,1E0,1.1382114E-2,3.44E2,1E0,1E0,1E0,1E0,1E0,-9.710608E-3,1.875262E-3,4.2601627E-1,3.821138E-1,9.430894E-2,2.406504E-1,1E0,3.55E2,1E0,2.1138212E-2,1E0,1E0,1E0,1E0,4E0,1E0,1E0,1E0,1E0,6.8973275E-3,-1.2252975E-2,-6.0505667E-3,4.878049E-3,4.6504065E-1,3.57E2,1E0,1E0,1E0,1E0,3.56E2,1E0,1E0,9.105691E-2,1.9512194E-1,-6.0661517E-2,1E0,3E0,1E0,-9.324338E-3,1.6538555E-2,-7.9514063E-4,-1.697434E-3,-1.2225409E-3,5.194603E-4,-7.255903E-4,2.2971407E-4,-1.7671854E-3,2.138633E-3,-4.9425494E-3,-2.069596E-3,-6.344563E-3,1.9151956E-3,-1.2447729E-2,-6.26949E-3,-3.2600402E-3,1.1848105E-3,6.0074064E-3,-2.8000777E-3,2.9172592E-2,8.375282E-3,9.711719E-3,-3.1220858E-4,7.5956513E-3,-1.6135866E-2,-1.5472705E-3,6.034092E-3,5.111275E-3,2.2957535E-2,-1.428747E-2,-6.632823E-2,5.1011103E-3,-1.26830125E-2,6.344332E-3,-8.025649E-3,1.7359054E-2,2.2312654E-3,1.0963011E-3,-8.2203E-3,-4.7769165E-3,1.5060018E-2,-1.7113982E-2,1.3409572E-2,1.7283212E-2,2.7734721E-2,1.7421935E-3,9.614163E-3],"split_indices":[15,0,11,1,16,6,14,16,16,19,16,5,16,12,16,26,4,11,24,10,9,0,0,16,16,16,16,8,26,4,16,4,8,2,20,24,23,3,4,13,0,0,0,16,16,26,14,9,7,18,26,7,6,16,16,0,8,24,7,0,0,0,0,0,0,0,0,0,0,0,0,0,0,0,0,0,0,0,0,0,0,0,0,0,0,0,0,0,0,0,0,0,0,0,0,0,0,0,0,0,0,0,0,0,0,0,0],"split_type":[0,0,0,0,0,0,0,0,0,0,0,0,0,0,0,0,0,0,0,0,0,0,0,0,0,0,0,0,0,0,0,0,0,0,0,0,0,0,0,0,0,0,0,0,0,0,0,0,0,0,0,0,0,0,0,0,0,0,0,0,0,0,0,0,0,0,0,0,0,0,0,0,0,0,0,0,0,0,0,0,0,0,0,0,0,0,0,0,0,0,0,0,0,0,0,0,0,0,0,0,0,0,0,0,0,0,0],"sum_hessian":[3.6141E4,2.671E4,9.431E3,2.6502E4,2.08E2,5.051E3,4.38E3,2.5888E4,6.14E2,1.69E2,3.9E1,3.171E3,1.88E3,2.329E3,2.051E3,7.955E3,1.7933E4,5.51E2,6.3E1,1.08E2,6.1E1,3.4E1,5E0,2.621E3,5.5E2,1.355E3,5.25E2,1.193E3,1.136E3,8.5E1,1.966E3,2E1,7.935E3,9.039E3,8.894E3,3.27E2,2.24E2,4.3E1,2E1,1.01E2,7E0,6E0,5.5E1,2.525E3,9.6E1,4.52E2,9.8E1,8.75E2,4.8E2,2.5E1,5E2,6.71E2,5.22E2,7.01E2,4.35E2,4E0,8.1E1,9.4E1,1.872E3,6E0,1.4E1,4.046E3,3.889E3,7.354E3,1.685E3,4.044E3,4.85E3,2.59E2,6.8E1,1.49E2,7.5E1,3.7E1,6E0,9E0,1.1E1,6.4E1,3.7E1,1.93E2,2.332E3,3.2E1,6.4E1,3.48E2,1.04E2,3.3E1,6.5E1,4.59E2,4.16E2,3.13E2,1.67E2,1.6E1,9E0,3.9E2,1.1E2,3.72E2,2.99E2,2.99E2,2.23E2,3.23E2,3.78E2,2.17E2,2.18E2,7.3E1,8E0,5.2E1,4.2E1,9.11E2,9.61E2],"tree_param":{"num_deleted":"0","num_feature":"27","num_nodes":"107","size_leaf_vector":"1"}},{"base_weights":[1.2795769E-5,-1.9303719E-3,5.5157575E-3,-2.799699E-3,-9.198707E-4,2.8165872E-3,1.0303575E-2,-1.3497802E-3,-3.9489293E-3,-3.0304128E-3,1.1054584E-3,1.8804822E-3,3.113251E-2,1.3133209E-2,-4.414861E-3,3.8044963E-3,-4.490856E-3,-8.3109345E-3,3.6424256E-4,-3.669359E-3,5.4563354E-3,-2.269841E-3,4.270888E-3,6.7231487E-3,-3.3026268E-3,2.545433E-2,6.3684136E-2,2.9678026E-3,1.9090591E-2,-2.2894695E-2,2.8478964E-3,1.1274902E-2,-2.6399465E-4,4.257129E-3,-5.367573E-3,-5.688804E-3,-1.12367235E-2,-9.951593E-4,3.4002385E-3,-2.654649E-3,-7.7685546E-3,1.8479686E-2,-2.9946559E-3,-4.4588656E-3,1.1685432E-3,-8.697983E-5,8.435009E-3,-1.0541673E-3,1.2016811E-2,-1.0052413E-2,4.977515E-3,3.845494E-2,-2.810736E-2,1.1431707E-1,3.368343E-2,-9.8897675E-3,1.6016008E-2,1.5577231E-2,3.0688606E-2,-2.8373655E-2,2.9099865E-2,3.9185107E-2,-5.099149E-3,-5.530904E-4,4.991609E-3,-8.052478E-4,3.5993832E-3,-2.6552049E-3,2.269444E-3,-7.1263066E-3,-1.4287987E-3,-2.6261057E-3,-4.5887142E-4,2.475417E-4,-3.696118E-3,1.9679732E-4,-1.2621891E-3,-1.7628662E-3,1.44648E-3,-1.1895646E-3,2.0820844E-4,-4.5738183E-3,-1.6910104E-3,2.8698735E-3,8.558252E-3,-2.0476745E-3,4.045414E-3,-3.1497136E-3,-1.9545142E-4,-8.873876E-4,3.492293E-3,1.4614816E-3,-1.7045533E-3,9.1929385E-4,4.2905295E-3,1.3222902E-3,-1.15424255E-2,9.777396E-4,6.776619E-3,-4.544402E-3,4.0226444E-3,3.2828392E-3,-8.934775E-3,9.556588E-3,2.3764873E-2,-1.8750818E-2,5.2001793E-3,4.459319E-2,2.3511209E-2,1.3027881E-2,1.600872E-3,-6.6288207E-3,1.4154359E-3,1.038075E-3,1.0171071E-2,5.352118E-3,-3.239425E-2,2.2909762E-2,3.9126235E-3,-4.249515E-3,-1.7124519E-2,-2.2282485E-2,1.4120228E-2,-4.2787245E-3,5.586079E-3],"categories":[],"categories_nodes":[],"categories_segments":[],"categories_sizes":[],"default_left":[0,0,0,0,0,0,0,0,0,0,0,0,0,0,0,0,0,0,0,0,0,0,0,0,0,0,0,0,0,0,0,0,0,0,0,0,0,0,0,0,0,0,0,0,0,0,0,0,0,0,0,0,0,0,0,0,0,0,0,0,0,0,0,0,0,0,0,0,0,0,0,0,0,0,0,0,0,0,0,0,0,0,0,0,0,0,0,0,0,0,0,0,0,0,0,0,0,0,0,0,0,0,0,0,0,0,0,0,0,0,0,0,0,0,0,0,0,0,0,0,0,0,0,0,0],"id":11,"left_children":[1,3,5,7,9,11,13,15,17,19,21,23,25,27,29,31,33,35,37,39,41,43,45,47,49,51,53,55,57,59,61,63,65,67,69,71,73,75,77,79,81,83,85,87,89,91,93,95,97,99,101,103,105,107,109,111,113,115,117,119,-1,121,123,-1,-1,-1,-1,-1,-1,-1,-1,-1,-1,-1,-1,-1,-1,-1,-1,-1,-1,-1,-1,-1,-1,-1,-1,-1,-1,-1,-1,-1,-1,-1,-1,-1,-1,-1,-1,-1,-1,-1,-1,-1,-1,-1,-1,-1,-1,-1,-1,-1,-1,-1,-1,-1,-1,-1,-1,-1,-1,-1,-1,-1,-1],"loss_changes":[3.8648346E-1,2.3461856E-2,1.21861964E-1,2.3919277E-2,5.281105E-2,1.5985626E-1,1.4166051E-1,1.0282342E-1,1.5068501E-1,3.282661E-2,6.7374036E-2,1.466317E-1,3.4051925E-2,1.726582E-1,7.374899E-2,7.3098816E-2,3.0286722E-2,3.0485183E-2,1.6627496E-2,2.3384854E-2,4.672087E-2,2.2976724E-2,5.905006E-2,1.2434757E-1,1.5776932E-1,1.16672404E-1,3.8682066E-2,1.7715384E-1,7.278681E-2,1.0457106E-1,1.1426533E-1,5.9700295E-2,4.6267275E-2,1.5675295E-2,3.9782792E-2,2.6781969E-2,2.459684E-2,1.4763017E-2,1.6457096E-2,1.9804396E-2,1.7704152E-2,1.468372E-2,1.63799E-2,4.2882826E-2,5.1373273E-2,4.4166166E-2,5.2386418E-2,2.503353E-1,1.6630244E-1,1.861016E-1,2.6325053E-1,3.3523902E-2,5.2661426E-2,6.8993866E-4,5.0157253E-3,9.496425E-2,1.17568865E-1,3.8837776E-1,3.3512485E-1,5.9968777E-2,0E0,6.699321E-2,7.090342E-2,0E0,0E0,0E0,0E0,0E0,0E0,0E0,0E0,0E0,0E0,0E0,0E0,0E0,0E0,0E0,0E0,0E0,0E0,0E0,0E0,0E0,0E0,0E0,0E0,0E0,0E0,0E0,0E0,0E0,0E0,0E0,0E0,0E0,0E0,0E0,0E0,0E0,0E0,0E0,0E0,0E0,0E0,0E0,0E0,0E0,0E0,0E0,0E0,0E0,0E0,0E0,0E0,0E0,0E0,0E0,0E0,0E0,0E0,0E0,0E0,0E0,0E0],"parents":[2147483647,0,0,1,1,2,2,3,3,4,4,5,5,6,6,7,7,8,8,9,9,10,10,11,11,12,12,13,13,14,14,15,15,16,16,17,17,18,18,19,19,20,20,21,21,22,22,23,23,24,24,25,25,26,26,27,27,28,28,29,29,30,30,31,31,32,32,33,33,34,34,35,35,36,36,37,37,38,38,39,39,40,40,41,41,42,42,43,43,44,44,45,45,46,46,47,47,48,48,49,49,50,50,51,51,52,52,53,53,54,54,55,55,56,56,57,57,58,58,59,59,61,61,62,62],"right_children":[2,4,6,8,10,12,14,16,18,20,22,24,26,28,30,32,34,36,38,40,42,44,46,48,50,52,54,56,58,60,62,64,66,68,70,72,74,76,78,80,82,84,86,88,90,92,94,96,98,100,102,104,106,108,110,112,114,116,118,120,-1,122,124,-1,-1,-1,-1,-1,-1,-1,-1,-1,-1,-1,-1,-1,-1,-1,-1,-1,-1,-1,-1,-1,-1,-1,-1,-1,-1,-1,-1,-1,-1,-1,-1,-1,-1,-1,-1,-1,-1,-1,-1,-1,-1,-1,-1,-1,-1,-1,-1,-1,-1,-1,-1,-1,-1,-1,-1,-1,-1,-1,-1,-1,-1],"split_conditions":[2E0,1E0,1E0,1E0,1E0,3.58E2,3.57E2,1E0,1E0,6E0,1E0,1E0,3.398374E-1,3.47E2,1E0,1E0,4.878049E-3,1E0,4E0,2.0975609E-1,1E0,1E0,1E0,1E0,1E0,1.5934959E-1,1E0,1E0,3.1869918E-1,2.8780487E-1,5.8536585E-2,1E0,4E0,1E0,6.504065E-3,2.4390243E-2,4.878049E-3,9.105691E-2,1E0,1E0,2.3089431E-1,1E0,3.45E2,7.317073E-2,1E0,1E0,1E0,1.0569106E-1,3E0,1E0,1.7560975E-1,1.398374E-1,1E0,1E0,3.821138E-1,1E0,1E0,3.1219512E-1,3.5934958E-1,1E0,2.9099865E-2,1E0,1E0,-5.530904E-4,4.991609E-3,-8.052478E-4,3.5993832E-3,-2.6552049E-3,2.269444E-3,-7.1263066E-3,-1.4287987E-3,-2.6261057E-3,-4.5887142E-4,2.475417E-4,-3.696118E-3,1.9679732E-4,-1.2621891E-3,-1.7628662E-3,1.44648E-3,-1.1895646E-3,2.0820844E-4,-4.5738183E-3,-1.6910104E-3,2.8698735E-3,8.558252E-3,-2.0476745E-3,4.045414E-3,-3.1497136E-3,-1.9545142E-4,-8.873876E-4,3.492293E-3,1.4614816E-3,-1.7045533E-3,9.1929385E-4,4.2905295E-3,1.3222902E-3,-1.15424255E-2,9.777396E-4,6.776619E-3,-4.544402E-3,4.0226444E-3,3.2828392E-3,-8.934775E-3,9.556588E-3,2.3764873E-2,-1.8750818E-2,5.2001793E-3,4.459319E-2,2.3511209E-2,1.3027881E-2,1.600872E-3,-6.6288207E-3,1.4154359E-3,1.038075E-3,1.0171071E-2,5.352118E-3,-3.239425E-2,2.2909762E-2,3.9126235E-3,-4.249515E-3,-1.7124519E-2,-2.2282485E-2,1.4120228E-2,-4.2787245E-3,5.586079E-3],"split_indices":[15,11,6,13,12,26,26,14,14,24,14,18,16,26,21,23,16,12,24,16,7,7,13,21,7,16,5,23,16,16,16,21,24,4,16,16,16,16,3,19,16,9,26,16,9,7,7,16,24,5,16,16,13,8,16,20,14,16,16,9,0,24,23,0,0,0,0,0,0,0,0,0,0,0,0,0,0,0,0,0,0,0,0,0,0,0,0,0,0,0,0,0,0,0,0,0,0,0,0,0,0,0,0,0,0,0,0,0,0,0,0,0,0,0,0,0,0,0,0,0,0,0,0,0,0],"split_type":[0,0,0,0,0,0,0,0,0,0,0,0,0,0,0,0,0,0,0,0,0,0,0,0,0,0,0,0,0,0,0,0,0,0,0,0,0,0,0,0,0,0,0,0,0,0,0,0,0,0,0,0,0,0,0,0,0,0,0,0,0,0,0,0,0,0,0,0,0,0,0,0,0,0,0,0,0,0,0,0,0,0,0,0,0,0,0,0,0,0,0,0,0,0,0,0,0,0,0,0,0,0,0,0,0,0,0,0,0,0,0,0,0,0,0,0,0,0,0,0,0,0,0,0,0],"sum_hessian":[3.6141E4,2.671E4,9.431E3,1.4357E4,1.2353E4,6.032E3,3.399E3,6.349E3,8.008E3,6.049E3,6.304E3,5.84E3,1.92E2,2.851E3,5.48E2,2.404E3,3.945E3,3.981E3,4.027E3,5.626E3,4.23E2,3.051E3,3.253E3,3.019E3,2.821E3,1.65E2,2.7E1,1.054E3,1.797E3,1.54E2,3.94E2,8.47E2,1.557E3,3.59E2,3.586E3,2.101E3,1.88E3,2.782E3,1.245E3,4.511E3,1.115E3,1.66E2,2.57E2,1.864E3,1.187E3,1.59E3,1.663E3,1.223E3,1.796E3,1.554E3,1.267E3,1.33E2,3.2E1,9E0,1.8E1,5.31E2,5.23E2,1.381E3,4.16E2,1.48E2,6E0,7E1,3.24E2,2.46E2,6.01E2,1.301E3,2.56E2,7.2E1,2.87E2,1.13E2,3.473E3,1.209E3,8.92E2,1.55E2,1.725E3,1.838E3,9.44E2,1.65E2,1.08E3,3.242E3,1.269E3,2.46E2,8.69E2,8.9E1,7.7E1,2.09E2,4.8E1,7.2E2,1.144E3,8.52E2,3.35E2,8.43E2,7.47E2,8.69E2,7.94E2,1.068E3,1.55E2,9.83E2,8.13E2,1.277E3,2.77E2,1.082E3,1.85E2,1.16E2,1.7E1,1.8E1,1.4E1,3E0,6E0,1.3E1,5E0,2.89E2,2.42E2,3.08E2,2.15E2,1.357E3,2.4E1,1.15E2,3.01E2,1E2,4.8E1,4E0,6.6E1,2.34E2,9E1],"tree_param":{"num_deleted":"0","num_feature":"27","num_nodes":"125","size_leaf_vector":"1"}},{"base_weights":[1.1758848E-5,-1.3512307E-3,3.8716826E-3,-6.091609E-3,-1.1934836E-3,1.0658822E-3,7.1063396E-3,-1.2482514E-2,-3.861762E-3,-1.2780909E-3,7.0751286E-3,-3.7139966E-3,6.3032834E-3,1.00477105E-2,4.665871E-4,-1.0882712E-2,-1.1871649E-2,-7.511698E-3,6.982002E-4,-1.130462E-3,-1.0940433E-2,1.2374744E-2,1.1677525E-3,-7.7293864E-3,1.7852273E-2,-1.3914885E-3,1.5414205E-2,3.5490256E-3,1.681497E-2,-8.829479E-3,1.14315795E-2,-2.431223E-3,-1.48845995E-2,-2.6469221E-3,-1.1722441E-2,-3.7279318E-3,1.3141075E-2,-1.2012433E-3,1.0622491E-2,-3.1731862E-3,-1.6568776E-2,1.4569609E-2,-1.4290483E-2,-8.503656E-3,6.0758186E-3,-5.347301E-3,-3.869283E-2,2.6293661E-2,-5.9790954E-2,-1.1551693E-2,9.936351E-3,3.555849E-2,9.16649E-3,-6.276118E-3,1.3587309E-2,1.5610656E-2,7.287525E-2,-3.8000115E-3,-6.384397E-2,-6.1058197E-2,1.4590606E-2,1.0591352E-3,-3.5507085E-3,-6.4840284E-3,-2.9279955E-3,-2.4628637E-3,1.2145243E-3,-5.610896E-3,-6.901404E-4,-8.0278603E-4,-1.0200994E-2,6.127101E-3,-1.5995115E-3,-5.771745E-4,-1.1873454E-4,4.2447963E-4,9.289968E-3,-1.4341131E-3,7.457635E-3,-8.961242E-3,-2.3519257E-3,2.219669E-3,7.6823835E-3,-2.5154576E-3,-5.3443084E-3,5.2838833E-3,-1.2520952E-3,-3.6674214E-3,-1.4346778E-4,-1.4752833E-2,2.4847578E-2,1.0098285E-2,-3.881941E-4,-2.117247E-2,-4.081925E-3,-8.891109E-3,3.2139097E-3,5.452632E-3,-2.1020668E-2,4.249541E-3,2.539954E-2,2.570715E-3,5.2137733E-2,-3.7769934E-3,6.420245E-3,6.7808125E-3,-3.73042E-3,2.6304254E-3,6.8690884E-3,3.0666383E-2,-7.2816745E-3,-2.165302E-3,1.3473106E-2,-7.5622876E-3,-2.5497746E-2,5.6609237E-3,-3.6279E-2,1.1322376E-3,9.315725E-3],"categories":[],"categories_nodes":[],"categories_segments":[],"categories_sizes":[],"default_left":[0,0,0,0,0,0,0,0,0,0,0,0,0,0,0,0,0,0,0,0,0,0,0,0,0,0,0,0,0,0,0,0,0,0,0,0,0,0,0,0,0,0,0,0,0,0,0,0,0,0,0,0,0,0,0,0,0,0,0,0,0,0,0,0,0,0,0,0,0,0,0,0,0,0,0,0,0,0,0,0,0,0,0,0,0,0,0,0,0,0,0,0,0,0,0,0,0,0,0,0,0,0,0,0,0,0,0,0,0,0,0,0,0,0,0,0,0,0,0],"id":12,"left_children":[1,3,5,7,9,11,13,15,17,19,21,23,25,27,29,31,-1,33,35,37,39,41,43,45,47,49,51,53,55,57,59,61,63,65,67,69,71,73,75,77,79,81,83,-1,85,87,89,91,93,95,97,99,101,103,105,107,109,111,113,115,117,-1,-1,-1,-1,-1,-1,-1,-1,-1,-1,-1,-1,-1,-1,-1,-1,-1,-1,-1,-1,-1,-1,-1,-1,-1,-1,-1,-1,-1,-1,-1,-1,-1,-1,-1,-1,-1,-1,-1,-1,-1,-1,-1,-1,-1,-1,-1,-1,-1,-1,-1,-1,-1,-1,-1,-1,-1,-1],"loss_changes":[1.9014959E-1,1.9966703E-2,8.5595384E-2,1.2207434E-2,1.8094692E-2,1.264959E-1,8.5556135E-2,9.190399E-3,1.0640488E-2,3.649166E-2,8.187936E-3,2.289272E-1,1.6904816E-1,1.3345835E-1,1.3730045E-1,7.1002394E-3,0E0,7.2409026E-3,1.5745025E-2,2.0982176E-2,1.6778365E-2,8.284876E-3,1.8278856E-2,1.6412494E-1,2.7357E-1,1.5065666E-1,1.3861877E-1,1.5295804E-1,9.925583E-2,2.01467E-1,1.4241111E-1,3.9103664E-3,4.7200695E-3,6.215678E-3,1.2453368E-2,6.6291573E-3,1.0198627E-2,1.4584519E-2,2.8241388E-2,7.462427E-3,2.5659177E-2,9.942079E-3,7.954682E-5,0E0,1.2844445E-2,6.9311745E-2,2.0662443E-1,7.6260865E-2,1.9459829E-2,2.7815637E-1,4.0929988E-1,2.7299568E-1,8.1521615E-2,1.3727207E-1,1.8021853E-1,7.244095E-2,9.085886E-2,1.1169626E-1,4.7700748E-2,1.2670311E-1,1.054717E-1,0E0,0E0,0E0,0E0,0E0,0E0,0E0,0E0,0E0,0E0,0E0,0E0,0E0,0E0,0E0,0E0,0E0,0E0,0E0,0E0,0E0,0E0,0E0,0E0,0E0,0E0,0E0,0E0,0E0,0E0,0E0,0E0,0E0,0E0,0E0,0E0,0E0,0E0,0E0,0E0,0E0,0E0,0E0,0E0,0E0,0E0,0E0,0E0,0E0,0E0,0E0,0E0,0E0,0E0,0E0,0E0,0E0,0E0],"parents":[2147483647,0,0,1,1,2,2,3,3,4,4,5,5,6,6,7,7,8,8,9,9,10,10,11,11,12,12,13,13,14,14,15,15,17,17,18,18,19,19,20,20,21,21,22,22,23,23,24,24,25,25,26,26,27,27,28,28,29,29,30,30,31,31,32,32,33,33,34,34,35,35,36,36,37,37,38,38,39,39,40,40,41,41,42,42,44,44,45,45,46,46,47,47,48,48,49,49,50,50,51,51,52,52,53,53,54,54,55,55,56,56,57,57,58,58,59,59,60,60],"right_children":[2,4,6,8,10,12,14,16,18,20,22,24,26,28,30,32,-1,34,36,38,40,42,44,46,48,50,52,54,56,58,60,62,64,66,68,70,72,74,76,78,80,82,84,-1,86,88,90,92,94,96,98,100,102,104,106,108,110,112,114,116,118,-1,-1,-1,-1,-1,-1,-1,-1,-1,-1,-1,-1,-1,-1,-1,-1,-1,-1,-1,-1,-1,-1,-1,-1,-1,-1,-1,-1,-1,-1,-1,-1,-1,-1,-1,-1,-1,-1,-1,-1,-1,-1,-1,-1,-1,-1,-1,-1,-1,-1,-1,-1,-1,-1,-1,-1,-1,-1],"split_conditions":[2E0,3.2520324E-3,1E0,1E0,4.9268293E-1,1E0,3.56E2,5E0,1E0,4.3577236E-1,1E0,2.8780487E-1,3E0,1E0,1E0,1E0,-1.1871649E-2,3.54E2,3.55E2,4.1951218E-1,1E0,3.57E2,6.1463416E-1,1.4146341E-1,1E0,1E0,4E0,1E0,1E0,4.1300812E-1,1E0,1E0,1E0,1E0,1E0,1E0,1E0,3E0,3.54E2,1E0,4.5528457E-1,1E0,1E0,-8.503656E-3,1E0,1E0,1E0,3.56E2,3E0,1E0,3.5284552E-1,1E0,5.121951E-1,4.0162602E-1,1E0,1E0,1E0,6E0,1E0,6.504065E-3,1E0,1.0591352E-3,-3.5507085E-3,-6.4840284E-3,-2.9279955E-3,-2.4628637E-3,1.2145243E-3,-5.610896E-3,-6.901404E-4,-8.0278603E-4,-1.0200994E-2,6.127101E-3,-1.5995115E-3,-5.771745E-4,-1.1873454E-4,4.2447963E-4,9.289968E-3,-1.4341131E-3,7.457635E-3,-8.961242E-3,-2.3519257E-3,2.219669E-3,7.6823835E-3,-2.5154576E-3,-5.3443084E-3,5.2838833E-3,-1.2520952E-3,-3.6674214E-3,-1.4346778E-4,-1.4752833E-2,2.4847578E-2,1.0098285E-2,-3.881941E-4,-2.117247E-2,-4.081925E-3,-8.891109E-3,3.2139097E-3,5.452632E-3,-2.1020668E-2,4.249541E-3,2.539954E-2,2.570715E-3,5.2137733E-2,-3.7769934E-3,6.420245E-3,6.7808125E-3,-3.73042E-3,2.6304254E-3,6.8690884E-3,3.0666383E-2,-7.2816745E-3,-2.165302E-3,1.3473106E-2,-7.5622876E-3,-2.5497746E-2,5.6609237E-3,-3.6279E-2,1.1322376E-3,9.315725E-3],"split_indices":[15,16,11,23,16,12,26,24,20,16,8,16,24,19,12,9,0,26,26,16,12,26,16,16,5,14,24,7,18,16,4,7,12,14,8,6,11,24,26,5,16,20,14,0,9,22,5,26,24,13,16,19,16,16,20,20,23,24,7,16,7,0,0,0,0,0,0,0,0,0,0,0,0,0,0,0,0,0,0,0,0,0,0,0,0,0,0,0,0,0,0,0,0,0,0,0,0,0,0,0,0,0,0,0,0,0,0,0,0,0,0,0,0,0,0,0,0,0,0],"split_type":[0,0,0,0,0,0,0,0,0,0,0,0,0,0,0,0,0,0,0,0,0,0,0,0,0,0,0,0,0,0,0,0,0,0,0,0,0,0,0,0,0,0,0,0,0,0,0,0,0,0,0,0,0,0,0,0,0,0,0,0,0,0,0,0,0,0,0,0,0,0,0,0,0,0,0,0,0,0,0,0,0,0,0,0,0,0,0,0,0,0,0,0,0,0,0,0,0,0,0,0,0,0,0,0,0,0,0,0,0,0,0,0,0,0,0,0,0,0,0],"sum_hessian":[3.6141E4,2.671E4,9.431E3,8.59E2,2.5851E4,5.051E3,4.38E3,2.21E2,6.38E2,2.559E4,2.61E2,2.641E3,2.41E3,3.035E3,1.345E3,2.1E2,1.1E1,3.54E2,2.84E2,2.5206E4,3.84E2,1.37E2,1.24E2,2.227E3,4.14E2,1.307E3,1.103E3,1.549E3,1.486E3,7.28E2,6.17E2,6.8E1,1.42E2,1.65E2,1.89E2,2.1E2,7.4E1,2.5056E4,1.5E2,1.62E2,2.22E2,1.27E2,1E1,1.7E1,1.07E2,2.069E3,1.58E2,3.74E2,4E1,6.89E2,6.18E2,2.6E2,8.43E2,7.83E2,7.66E2,1.456E3,3E1,6.68E2,6E1,2.5E1,5.92E2,4.2E1,2.6E1,6E1,8.2E1,9E1,7.5E1,1.08E2,8.1E1,2.04E2,6E0,5.3E1,2.1E1,1.3206E4,1.185E4,1.04E2,4.6E1,1.54E2,8E0,8.7E1,1.35E2,7.8E1,4.9E1,5E0,5E0,5E1,5.7E1,8.57E2,1.212E3,1.46E2,1.2E1,2.95E2,7.9E1,3.2E1,8E0,3.8E2,3.09E2,5.61E2,5.7E1,1.82E2,7.8E1,8.41E2,2E0,6.38E2,1.45E2,5.69E2,1.97E2,7.52E2,7.04E2,2.3E1,7E0,6.25E2,4.3E1,2.2E1,3.8E1,1.1E1,1.4E1,3.58E2,2.34E2],"tree_param":{"num_deleted":"0","num_feature":"27","num_nodes":"119","size_leaf_vector":"1"}},{"base_weights":[8.619312E-6,-9.472285E-4,2.7155364E-3,-1.1909514E-3,1.8013616E-3,5.8203953E-4,5.761592E-3,-1.8790049E-3,-4.0197236E-4,2.5444056E-3,-7.90339E-3,1.4865679E-3,-2.7362915E-2,6.9550455E-2,5.130163E-3,-6.118851E-4,-2.9046175E-3,-1.9836775E-3,1.0900017E-3,3.5183216E-3,-4.6000998E-3,-2.5122428E-2,-2.2912978E-3,5.245647E-4,5.3282145E-2,8.31205E-3,-5.643541E-2,1.384289E-1,-4.529174E-2,-5.724206E-3,6.723153E-3,2.8102815E-3,-2.673433E-3,-5.950109E-3,9.6601376E-5,-1.0087657E-2,-1.4094647E-3,-1.7025828E-3,2.8716035E-3,1.9386661E-3,1.0584353E-2,-1.1544938E-2,3.6259613E-3,-1.2465162E-2,-2.0743703E-2,1.4632954E-2,-9.315792E-3,1.0378716E-3,-3.6089137E-2,8.974596E-3,8.499504E-2,-2.274867E-2,5.7139896E-2,-1.15144245E-1,-3.0567883E-2,2.8334176E-2,4.755642E-2,-1.967248E-2,-3.195468E-2,9.813584E-3,-2.8345343E-2,6.9648825E-4,9.918919E-3,2.5667965E-3,-1.1162027E-4,1.234391E-3,-1.0238746E-3,-7.7513483E-4,-2.4517204E-3,-8.178926E-4,6.4706354E-4,-5.4457444E-3,-1.0010535E-3,-3.3258132E-4,-3.8212026E-3,-1.6072982E-3,8.509998E-4,-2.1697004E-5,2.3247506E-3,-1.4774717E-4,1.4141308E-3,1.5495062E-3,5.285927E-3,3.2742359E-3,-4.4210483E-3,1.7758381E-3,-6.107902E-3,-7.961062E-3,-3.419956E-3,7.742077E-3,-6.1544506E-3,-6.4661293E-3,-1.7666811E-3,-1.3363976E-3,1.3795156E-3,-5.1631127E-3,-6.348909E-2,-5.4320977E-3,1.1900908E-2,4.9643945E-3,3.4848507E-2,2.2937497E-3,-3.8532883E-2,3.358231E-2,7.7140783E-3,-2.0688633E-2,-5.2446637E-2,-1.4694037E-2,-4.145288E-3,-3.0398504E-3,-1.16613805E-2,-7.1348012E-3,7.891826E-3,-1.665538E-2,-1.03754915E-4,2.6587592E-3,-4.972901E-3,5.1041655E-3,1.2294705E-3],"categories":[],"categories_nodes":[],"categories_segments":[],"categories_sizes":[],"default_left":[0,0,0,0,0,0,0,0,0,0,0,0,0,0,0,0,0,0,0,0,0,0,0,0,0,0,0,0,0,0,0,0,0,0,0,0,0,0,0,0,0,0,0,0,0,0,0,0,0,0,0,0,0,0,0,0,0,0,0,0,0,0,0,0,0,0,0,0,0,0,0,0,0,0,0,0,0,0,0,0,0,0,0,0,0,0,0,0,0,0,0,0,0,0,0,0,0,0,0,0,0,0,0,0,0,0,0,0,0,0,0,0,0,0,0,0,0,0,0],"id":13,"left_children":[1,3,5,7,9,11,13,15,17,19,21,23,25,27,29,31,33,35,37,39,41,43,45,47,49,51,53,55,57,59,61,63,65,67,69,71,73,75,77,79,81,83,85,-1,87,89,91,93,95,97,99,101,103,105,107,-1,-1,-1,109,111,113,115,117,-1,-1,-1,-1,-1,-1,-1,-1,-1,-1,-1,-1,-1,-1,-1,-1,-1,-1,-1,-1,-1,-1,-1,-1,-1,-1,-1,-1,-1,-1,-1,-1,-1,-1,-1,-1,-1,-1,-1,-1,-1,-1,-1,-1,-1,-1,-1,-1,-1,-1,-1,-1,-1,-1,-1,-1],"loss_changes":[9.3516424E-2,1.7895693E-2,6.1292864E-2,1.3318852E-2,1.571137E-2,1.402775E-1,1.5612373E-1,1.703044E-2,2.6977753E-2,1.4085559E-2,1.4920835E-2,2.677949E-1,1.8093495E-1,3.0685538E-1,6.657386E-2,4.13778E-2,6.620295E-2,2.5807537E-2,2.9274426E-2,1.9847654E-2,1.3924129E-2,1.8715858E-3,1.4164665E-2,9.923253E-2,1.3693902E-1,1.2111347E-1,1.4227095E-1,6.236911E-3,1.962347E-3,1.7355901E-1,6.4629E-2,4.032126E-2,1.8385991E-2,2.6872933E-2,2.1228379E-2,1.992042E-2,1.7650109E-2,3.8042475E-2,5.157879E-2,9.825531E-3,1.2300331E-2,9.623496E-3,6.281753E-3,0E0,1.4296593E-3,1.4275335E-2,3.3958433E-3,1.01830214E-1,2.3827972E-1,3.563172E-2,1.1967391E-1,1.5839577E-1,5.05097E-2,6.7869395E-2,2.0295069E-2,0E0,0E0,0E0,1.2663836E-3,1.6297293E-1,1.5290536E-1,1.6432984E-1,9.049584E-2,0E0,0E0,0E0,0E0,0E0,0E0,0E0,0E0,0E0,0E0,0E0,0E0,0E0,0E0,0E0,0E0,0E0,0E0,0E0,0E0,0E0,0E0,0E0,0E0,0E0,0E0,0E0,0E0,0E0,0E0,0E0,0E0,0E0,0E0,0E0,0E0,0E0,0E0,0E0,0E0,0E0,0E0,0E0,0E0,0E0,0E0,0E0,0E0,0E0,0E0,0E0,0E0,0E0,0E0,0E0,0E0],"parents":[2147483647,0,0,1,1,2,2,3,3,4,4,5,5,6,6,7,7,8,8,9,9,10,10,11,11,12,12,13,13,14,14,15,15,16,16,17,17,18,18,19,19,20,20,21,21,22,22,23,23,24,24,25,25,26,26,27,27,28,28,29,29,30,30,31,31,32,32,33,33,34,34,35,35,36,36,37,37,38,38,39,39,40,40,41,41,42,42,44,44,45,45,46,46,47,47,48,48,49,49,50,50,51,51,52,52,53,53,54,54,58,58,59,59,60,60,61,61,62,62],"right_children":[2,4,6,8,10,12,14,16,18,20,22,24,26,28,30,32,34,36,38,40,42,44,46,48,50,52,54,56,58,60,62,64,66,68,70,72,74,76,78,80,82,84,86,-1,88,90,92,94,96,98,100,102,104,106,108,-1,-1,-1,110,112,114,116,118,-1,-1,-1,-1,-1,-1,-1,-1,-1,-1,-1,-1,-1,-1,-1,-1,-1,-1,-1,-1,-1,-1,-1,-1,-1,-1,-1,-1,-1,-1,-1,-1,-1,-1,-1,-1,-1,-1,-1,-1,-1,-1,-1,-1,-1,-1,-1,-1,-1,-1,-1,-1,-1,-1,-1,-1],"split_conditions":[2E0,1E0,1.5121952E-1,1E0,1E0,1.3658537E-1,1.5284553E-1,1E0,1E0,3.57E2,8.7804876E-2,1.2845528E-1,1E0,3E0,1E0,1E0,1E0,1E0,6.8292685E-2,4E0,1E0,5.5284552E-2,2E0,1.2520325E-1,1E0,3.56E2,1E0,1E0,4E0,1E0,3.47E2,1E0,4.878049E-3,1E0,1E0,1E0,4.0162602E-1,1E0,1E0,1E0,1E0,1E0,3.398374E-1,-1.2465162E-2,2E0,1E0,1E0,1E0,1E0,1E0,1E0,1E0,1E0,1E0,1E0,2.8334176E-2,4.755642E-2,-1.967248E-2,1E0,1E0,1E0,3.46E2,1E0,2.5667965E-3,-1.1162027E-4,1.234391E-3,-1.0238746E-3,-7.7513483E-4,-2.4517204E-3,-8.178926E-4,6.4706354E-4,-5.4457444E-3,-1.0010535E-3,-3.3258132E-4,-3.8212026E-3,-1.6072982E-3,8.509998E-4,-2.1697004E-5,2.3247506E-3,-1.4774717E-4,1.4141308E-3,1.5495062E-3,5.285927E-3,3.2742359E-3,-4.4210483E-3,1.7758381E-3,-6.107902E-3,-7.961062E-3,-3.419956E-3,7.742077E-3,-6.1544506E-3,-6.4661293E-3,-1.7666811E-3,-1.3363976E-3,1.3795156E-3,-5.1631127E-3,-6.348909E-2,-5.4320977E-3,1.1900908E-2,4.9643945E-3,3.4848507E-2,2.2937497E-3,-3.8532883E-2,3.358231E-2,7.7140783E-3,-2.0688633E-2,-5.2446637E-2,-1.4694037E-2,-4.145288E-3,-3.0398504E-3,-1.16613805E-2,-7.1348012E-3,7.891826E-3,-1.665538E-2,-1.03754915E-4,2.6587592E-3,-4.972901E-3,5.1041655E-3,1.2294705E-3],"split_indices":[15,5,16,11,8,16,16,13,12,26,16,16,9,24,21,14,14,3,16,24,4,16,24,16,12,26,21,6,24,7,26,23,16,21,7,6,16,7,23,12,4,24,16,0,24,11,2,13,19,13,14,21,5,7,8,0,0,0,7,11,13,26,14,0,0,0,0,0,0,0,0,0,0,0,0,0,0,0,0,0,0,0,0,0,0,0,0,0,0,0,0,0,0,0,0,0,0,0,0,0,0,0,0,0,0,0,0,0,0,0,0,0,0,0,0,0,0,0,0],"split_type":[0,0,0,0,0,0,0,0,0,0,0,0,0,0,0,0,0,0,0,0,0,0,0,0,0,0,0,0,0,0,0,0,0,0,0,0,0,0,0,0,0,0,0,0,0,0,0,0,0,0,0,0,0,0,0,0,0,0,0,0,0,0,0,0,0,0,0,0,0,0,0,0,0,0,0,0,0,0,0,0,0,0,0,0,0,0,0,0,0,0,0,0,0,0,0,0,0,0,0,0,0,0,0,0,0,0,0,0,0,0,0,0,0,0,0,0,0,0,0],"sum_hessian":[3.6141E4,2.671E4,9.431E3,2.4535E4,2.175E3,5.547E3,3.884E3,1.3105E4,1.143E4,2.021E3,1.54E2,5.374E3,1.73E2,3.7E1,3.847E3,5.863E3,7.242E3,5.548E3,5.882E3,1.779E3,2.42E2,3.7E1,1.17E2,5.277E3,9.7E1,7.8E1,9.5E1,2.3E1,1.4E1,4.92E2,3.355E3,2.204E3,3.659E3,3.594E3,3.648E3,3.66E2,5.182E3,2.291E3,3.591E3,1.455E3,3.24E2,1.31E2,1.11E2,6E0,3.1E1,3.4E1,8.3E1,5.205E3,7.2E1,4.1E1,5.6E1,4.8E1,3E1,2.8E1,6.7E1,9E0,1.4E1,4E0,1E1,2.92E2,2E2,1.163E3,2.192E3,7.85E2,1.419E3,3.59E2,3.3E3,1.43E3,2.164E3,1.539E3,2.109E3,1.66E2,2E2,5.049E3,1.33E2,1.269E3,1.022E3,2.24E3,1.351E3,7.76E2,6.79E2,1.84E2,1.4E2,1.6E1,1.15E2,1.02E2,9E0,1.8E1,1.3E1,2.6E1,8E0,1.7E1,6.6E1,2.047E3,3.158E3,6.6E1,6E0,2.2E1,1.9E1,1.8E1,3.8E1,3.8E1,1E1,1E1,2E1,1.7E1,1.1E1,3.1E1,3.6E1,3E0,7E0,9.6E1,1.96E2,1.01E2,9.9E1,7.9E2,3.73E2,9.87E2,1.205E3],"tree_param":{"num_deleted":"0","num_feature":"27","num_nodes":"119","size_leaf_vector":"1"}},{"base_weights":[2.7853591E-6,-6.6447025E-4,1.892423E-3,-6.054967E-4,-8.139649E-3,1.8264012E-3,2.7157549E-2,-1.2906825E-3,-5.2138552E-5,-5.801347E-3,-1.7873945E-2,2.7201888E-3,-3.3690906E-3,4.577501E-4,-2.3373961E-3,9.6042024E-4,-1.2670191E-3,1.7307943E-3,-9.925522E-3,-2.1444485E-2,1.779958E-3,1.703677E-3,1.2719986E-2,-7.2488384E-3,1.0733837E-2,-6.3211937E-4,4.1684797E-3,-4.6779774E-3,-8.0713717E-4,7.2259284E-3,2.746441E-4,1.7470994E-4,-3.7787003E-3,9.604443E-3,-4.8042927E-3,-1.3217716E-2,-3.0728776E-3,-7.238697E-3,-3.6960987E-3,-1.1885967E-3,6.2247314E-3,7.238198E-3,3.563154E-2,-1.2328488E-2,-1.6756407E-3,-5.055286E-2,1.5308341E-2,-9.6810743E-4,1.9089747E-4,2.5868125E-3,-7.6694187E-4,-1.6714972E-3,6.768013E-4,1.12094705E-4,-6.7789474E-4,1.224188E-4,3.973651E-3,6.41974E-4,-3.222361E-4,2.8553285E-4,-1.8618178E-3,4.600346E-3,-1.3585632E-3,5.321553E-3,-1.3736938E-3,-2.6499033E-3,9.953324E-4,-3.3432986E-3,-9.441285E-3,-3.4624396E-4,-1.957911E-3,-1.9073938E-3,1.0797383E-3,2.9044848E-5,3.7781503E-3,4.8704464E-3,1.6243881E-4,1.7208759E-2,6.540579E-3,-2.8310053E-4,-5.6562033E-3,-4.5181643E-3,4.0065227E-3,-4.4126756E-2,-5.755837E-3,8.619514E-3,2.4997531E-3],"categories":[],"categories_nodes":[],"categories_segments":[],"categories_sizes":[],"default_left":[0,0,0,0,0,0,0,0,0,0,0,0,0,0,0,0,0,0,0,0,0,0,0,0,0,0,0,0,0,0,0,0,0,0,0,0,0,0,0,0,0,0,0,0,0,0,0,0,0,0,0,0,0,0,0,0,0,0,0,0,0,0,0,0,0,0,0,0,0,0,0,0,0,0,0,0,0,0,0,0,0,0,0,0,0,0,0],"id":14,"left_children":[1,3,5,7,9,11,-1,13,15,17,19,21,23,25,27,29,31,33,35,37,-1,39,41,43,45,47,49,51,53,55,57,59,61,63,65,67,69,-1,-1,71,73,75,77,79,81,83,85,-1,-1,-1,-1,-1,-1,-1,-1,-1,-1,-1,-1,-1,-1,-1,-1,-1,-1,-1,-1,-1,-1,-1,-1,-1,-1,-1,-1,-1,-1,-1,-1,-1,-1,-1,-1,-1,-1,-1,-1],"loss_changes":[4.5571674E-2,1.1770301E-2,5.502784E-2,1.0048628E-2,4.653509E-3,4.378036E-2,0E0,2.1671383E-2,1.803873E-2,5.2980375E-3,3.5274085E-3,8.173472E-2,7.580448E-2,1.793871E-2,2.6525836E-2,3.436331E-2,2.4139335E-2,3.1848962E-3,2.4410095E-3,5.600061E-4,0E0,9.548928E-2,9.293454E-2,3.0723885E-2,8.4600404E-2,1.1288582E-2,3.0186195E-2,1.8156685E-2,7.684519E-3,3.2375675E-2,1.8141277E-2,2.1009179E-2,3.4910303E-2,3.311553E-3,1.1418374E-3,2.4498822E-3,2.3764162E-4,0E0,0E0,1.1025751E-1,1.111933E-1,3.6140017E-2,4.1725338E-2,4.2180017E-2,1.0461601E-1,6.0766555E-2,2.5885925E-2,0E0,0E0,0E0,0E0,0E0,0E0,0E0,0E0,0E0,0E0,0E0,0E0,0E0,0E0,0E0,0E0,0E0,0E0,0E0,0E0,0E0,0E0,0E0,0E0,0E0,0E0,0E0,0E0,0E0,0E0,0E0,0E0,0E0,0E0,0E0,0E0,0E0,0E0,0E0,0E0],"parents":[2147483647,0,0,1,1,2,2,3,3,4,4,5,5,7,7,8,8,9,9,10,10,11,11,12,12,13,13,14,14,15,15,16,16,17,17,18,18,19,19,21,21,22,22,23,23,24,24,25,25,26,26,27,27,28,28,29,29,30,30,31,31,32,32,33,33,34,34,35,35,36,36,39,39,40,40,41,41,42,42,43,43,44,44,45,45,46,46],